{"learner":{"attributes":{"scikit_learn":"{\"_estimator_type\": \"ranker\"}"},"feature_names":["vendor_cov","bm25_full_norm","bm25_skills_norm","bm25_combo","emb_cosine_norm"],"feature_types":["float","float","float","float","float"],"gradient_booster":{"model":{"gbtree_model_param":{"num_parallel_tree":"1","num_trees":"1500"},"iteration_indptr":[0,1,2,3,4,5,6,7,8,9,10,11,12,13,14,15,16,17,18,19,20,21,22,23,24,25,26,27,28,29,30,31,32,33,34,35,36,37,38,39,40,41,42,43,44,45,46,47,48,49,50,51,52,53,54,55,56,57,58,59,60,61,62,63,64,65,66,67,68,69,70,71,72,73,74,75,76,77,78,79,80,81,82,83,84,85,86,87,88,89,90,91,92,93,94,95,96,97,98,99,100,101,102,103,104,105,106,107,108,109,110,111,112,113,114,115,116,117,118,119,120,121,122,123,124,125,126,127,128,129,130,131,132,133,134,135,136,137,138,139,140,141,142,143,144,145,146,147,148,149,150,151,152,153,154,155,156,157,158,159,160,161,162,163,164,165,166,167,168,169,170,171,172,173,174,175,176,177,178,179,180,181,182,183,184,185,186,187,188,189,190,191,192,193,194,195,196,197,198,199,200,201,202,203,204,205,206,207,208,209,210,211,212,213,214,215,216,217,218,219,220,221,222,223,224,225,226,227,228,229,230,231,232,233,234,235,236,237,238,239,240,241,242,243,244,245,246,247,248,249,250,251,252,253,254,255,256,257,258,259,260,261,262,263,264,265,266,267,268,269,270,271,272,273,274,275,276,277,278,279,280,281,282,283,284,285,286,287,288,289,290,291,292,293,294,295,296,297,298,299,300,301,302,303,304,305,306,307,308,309,310,311,312,313,314,315,316,317,318,319,320,321,322,323,324,325,326,327,328,329,330,331,332,333,334,335,336,337,338,339,340,341,342,343,344,345,346,347,348,349,350,351,352,353,354,355,356,357,358,359,360,361,362,363,364,365,366,367,368,369,370,371,372,373,374,375,376,377,378,379,380,381,382,383,384,385,386,387,388,389,390,391,392,393,394,395,396,397,398,399,400,401,402,403,404,405,406,407,408,409,410,411,412,413,414,415,416,417,418,419,420,421,422,423,424,425,426,427,428,429,430,431,432,433,434,435,436,437,438,439,440,441,442,443,444,445,446,447,448,449,450,451,452,453,454,455,456,457,458,459,460,461,462,463,464,465,466,467,468,469,470,471,472,473,474,475,476,477,478,479,480,481,482,483,484,485,486,487,488,489,490,491,492,493,494,495,496,497,498,499,500,501,502,503,504,505,506,507,508,509,510,511,512,513,514,515,516,517,518,519,520,521,522,523,524,525,526,527,528,529,530,531,532,533,534,535,536,537,538,539,540,541,542,543,544,545,546,547,548,549,550,551,552,553,554,555,556,557,558,559,560,561,562,563,564,565,566,567,568,569,570,571,572,573,574,575,576,577,578,579,580,581,582,583,584,585,586,587,588,589,590,591,592,593,594,595,596,597,598,599,600,601,602,603,604,605,606,607,608,609,610,611,612,613,614,615,616,617,618,619,620,621,622,623,624,625,626,627,628,629,630,631,632,633,634,635,636,637,638,639,640,641,642,643,644,645,646,647,648,649,650,651,652,653,654,655,656,657,658,659,660,661,662,663,664,665,666,667,668,669,670,671,672,673,674,675,676,677,678,679,680,681,682,683,684,685,686,687,688,689,690,691,692,693,694,695,696,697,698,699,700,701,702,703,704,705,706,707,708,709,710,711,712,713,714,715,716,717,718,719,720,721,722,723,724,725,726,727,728,729,730,731,732,733,734,735,736,737,738,739,740,741,742,743,744,745,746,747,748,749,750,751,752,753,754,755,756,757,758,759,760,761,762,763,764,765,766,767,768,769,770,771,772,773,774,775,776,777,778,779,780,781,782,783,784,785,786,787,788,789,790,791,792,793,794,795,796,797,798,799,800,801,802,803,804,805,806,807,808,809,810,811,812,813,814,815,816,817,818,819,820,821,822,823,824,825,826,827,828,829,830,831,832,833,834,835,836,837,838,839,840,841,842,843,844,845,846,847,848,849,850,851,852,853,854,855,856,857,858,859,860,861,862,863,864,865,866,867,868,869,870,871,872,873,874,875,876,877,878,879,880,881,882,883,884,885,886,887,888,889,890,891,892,893,894,895,896,897,898,899,900,901,902,903,904,905,906,907,908,909,910,911,912,913,914,915,916,917,918,919,920,921,922,923,924,925,926,927,928,929,930,931,932,933,934,935,936,937,938,939,940,941,942,943,944,945,946,947,948,949,950,951,952,953,954,955,956,957,958,959,960,961,962,963,964,965,966,967,968,969,970,971,972,973,974,975,976,977,978,979,980,981,982,983,984,985,986,987,988,989,990,991,992,993,994,995,996,997,998,999,1000,1001,1002,1003,1004,1005,1006,1007,1008,1009,1010,1011,1012,1013,1014,1015,1016,1017,1018,1019,1020,1021,1022,1023,1024,1025,1026,1027,1028,1029,1030,1031,1032,1033,1034,1035,1036,1037,1038,1039,1040,1041,1042,1043,1044,1045,1046,1047,1048,1049,1050,1051,1052,1053,1054,1055,1056,1057,1058,1059,1060,1061,1062,1063,1064,1065,1066,1067,1068,1069,1070,1071,1072,1073,1074,1075,1076,1077,1078,1079,1080,1081,1082,1083,1084,1085,1086,1087,1088,1089,1090,1091,1092,1093,1094,1095,1096,1097,1098,1099,1100,1101,1102,1103,1104,1105,1106,1107,1108,1109,1110,1111,1112,1113,1114,1115,1116,1117,1118,1119,1120,1121,1122,1123,1124,1125,1126,1127,1128,1129,1130,1131,1132,1133,1134,1135,1136,1137,1138,1139,1140,1141,1142,1143,1144,1145,1146,1147,1148,1149,1150,1151,1152,1153,1154,1155,1156,1157,1158,1159,1160,1161,1162,1163,1164,1165,1166,1167,1168,1169,1170,1171,1172,1173,1174,1175,1176,1177,1178,1179,1180,1181,1182,1183,1184,1185,1186,1187,1188,1189,1190,1191,1192,1193,1194,1195,1196,1197,1198,1199,1200,1201,1202,1203,1204,1205,1206,1207,1208,1209,1210,1211,1212,1213,1214,1215,1216,1217,1218,1219,1220,1221,1222,1223,1224,1225,1226,1227,1228,1229,1230,1231,1232,1233,1234,1235,1236,1237,1238,1239,1240,1241,1242,1243,1244,1245,1246,1247,1248,1249,1250,1251,1252,1253,1254,1255,1256,1257,1258,1259,1260,1261,1262,1263,1264,1265,1266,1267,1268,1269,1270,1271,1272,1273,1274,1275,1276,1277,1278,1279,1280,1281,1282,1283,1284,1285,1286,1287,1288,1289,1290,1291,1292,1293,1294,1295,1296,1297,1298,1299,1300,1301,1302,1303,1304,1305,1306,1307,1308,1309,1310,1311,1312,1313,1314,1315,1316,1317,1318,1319,1320,1321,1322,1323,1324,1325,1326,1327,1328,1329,1330,1331,1332,1333,1334,1335,1336,1337,1338,1339,1340,1341,1342,1343,1344,1345,1346,1347,1348,1349,1350,1351,1352,1353,1354,1355,1356,1357,1358,1359,1360,1361,1362,1363,1364,1365,1366,1367,1368,1369,1370,1371,1372,1373,1374,1375,1376,1377,1378,1379,1380,1381,1382,1383,1384,1385,1386,1387,1388,1389,1390,1391,1392,1393,1394,1395,1396,1397,1398,1399,1400,1401,1402,1403,1404,1405,1406,1407,1408,1409,1410,1411,1412,1413,1414,1415,1416,1417,1418,1419,1420,1421,1422,1423,1424,1425,1426,1427,1428,1429,1430,1431,1432,1433,1434,1435,1436,1437,1438,1439,1440,1441,1442,1443,1444,1445,1446,1447,1448,1449,1450,1451,1452,1453,1454,1455,1456,1457,1458,1459,1460,1461,1462,1463,1464,1465,1466,1467,1468,1469,1470,1471,1472,1473,1474,1475,1476,1477,1478,1479,1480,1481,1482,1483,1484,1485,1486,1487,1488,1489,1490,1491,1492,1493,1494,1495,1496,1497,1498,1499,1500],"tree_info":[0,0,0,0,0,0,0,0,0,0,0,0,0,0,0,0,0,0,0,0,0,0,0,0,0,0,0,0,0,0,0,0,0,0,0,0,0,0,0,0,0,0,0,0,0,0,0,0,0,0,0,0,0,0,0,0,0,0,0,0,0,0,0,0,0,0,0,0,0,0,0,0,0,0,0,0,0,0,0,0,0,0,0,0,0,0,0,0,0,0,0,0,0,0,0,0,0,0,0,0,0,0,0,0,0,0,0,0,0,0,0,0,0,0,0,0,0,0,0,0,0,0,0,0,0,0,0,0,0,0,0,0,0,0,0,0,0,0,0,0,0,0,0,0,0,0,0,0,0,0,0,0,0,0,0,0,0,0,0,0,0,0,0,0,0,0,0,0,0,0,0,0,0,0,0,0,0,0,0,0,0,0,0,0,0,0,0,0,0,0,0,0,0,0,0,0,0,0,0,0,0,0,0,0,0,0,0,0,0,0,0,0,0,0,0,0,0,0,0,0,0,0,0,0,0,0,0,0,0,0,0,0,0,0,0,0,0,0,0,0,0,0,0,0,0,0,0,0,0,0,0,0,0,0,0,0,0,0,0,0,0,0,0,0,0,0,0,0,0,0,0,0,0,0,0,0,0,0,0,0,0,0,0,0,0,0,0,0,0,0,0,0,0,0,0,0,0,0,0,0,0,0,0,0,0,0,0,0,0,0,0,0,0,0,0,0,0,0,0,0,0,0,0,0,0,0,0,0,0,0,0,0,0,0,0,0,0,0,0,0,0,0,0,0,0,0,0,0,0,0,0,0,0,0,0,0,0,0,0,0,0,0,0,0,0,0,0,0,0,0,0,0,0,0,0,0,0,0,0,0,0,0,0,0,0,0,0,0,0,0,0,0,0,0,0,0,0,0,0,0,0,0,0,0,0,0,0,0,0,0,0,0,0,0,0,0,0,0,0,0,0,0,0,0,0,0,0,0,0,0,0,0,0,0,0,0,0,0,0,0,0,0,0,0,0,0,0,0,0,0,0,0,0,0,0,0,0,0,0,0,0,0,0,0,0,0,0,0,0,0,0,0,0,0,0,0,0,0,0,0,0,0,0,0,0,0,0,0,0,0,0,0,0,0,0,0,0,0,0,0,0,0,0,0,0,0,0,0,0,0,0,0,0,0,0,0,0,0,0,0,0,0,0,0,0,0,0,0,0,0,0,0,0,0,0,0,0,0,0,0,0,0,0,0,0,0,0,0,0,0,0,0,0,0,0,0,0,0,0,0,0,0,0,0,0,0,0,0,0,0,0,0,0,0,0,0,0,0,0,0,0,0,0,0,0,0,0,0,0,0,0,0,0,0,0,0,0,0,0,0,0,0,0,0,0,0,0,0,0,0,0,0,0,0,0,0,0,0,0,0,0,0,0,0,0,0,0,0,0,0,0,0,0,0,0,0,0,0,0,0,0,0,0,0,0,0,0,0,0,0,0,0,0,0,0,0,0,0,0,0,0,0,0,0,0,0,0,0,0,0,0,0,0,0,0,0,0,0,0,0,0,0,0,0,0,0,0,0,0,0,0,0,0,0,0,0,0,0,0,0,0,0,0,0,0,0,0,0,0,0,0,0,0,0,0,0,0,0,0,0,0,0,0,0,0,0,0,0,0,0,0,0,0,0,0,0,0,0,0,0,0,0,0,0,0,0,0,0,0,0,0,0,0,0,0,0,0,0,0,0,0,0,0,0,0,0,0,0,0,0,0,0,0,0,0,0,0,0,0,0,0,0,0,0,0,0,0,0,0,0,0,0,0,0,0,0,0,0,0,0,0,0,0,0,0,0,0,0,0,0,0,0,0,0,0,0,0,0,0,0,0,0,0,0,0,0,0,0,0,0,0,0,0,0,0,0,0,0,0,0,0,0,0,0,0,0,0,0,0,0,0,0,0,0,0,0,0,0,0,0,0,0,0,0,0,0,0,0,0,0,0,0,0,0,0,0,0,0,0,0,0,0,0,0,0,0,0,0,0,0,0,0,0,0,0,0,0,0,0,0,0,0,0,0,0,0,0,0,0,0,0,0,0,0,0,0,0,0,0,0,0,0,0,0,0,0,0,0,0,0,0,0,0,0,0,0,0,0,0,0,0,0,0,0,0,0,0,0,0,0,0,0,0,0,0,0,0,0,0,0,0,0,0,0,0,0,0,0,0,0,0,0,0,0,0,0,0,0,0,0,0,0,0,0,0,0,0,0,0,0,0,0,0,0,0,0,0,0,0,0,0,0,0,0,0,0,0,0,0,0,0,0,0,0,0,0,0,0,0,0,0,0,0,0,0,0,0,0,0,0,0,0,0,0,0,0,0,0,0,0,0,0,0,0,0,0,0,0,0,0,0,0,0,0,0,0,0,0,0,0,0,0,0,0,0,0,0,0,0,0,0,0,0,0,0,0,0,0,0,0,0,0,0,0,0,0,0,0,0,0,0,0,0,0,0,0,0,0,0,0,0,0,0,0,0,0,0,0,0,0,0,0,0,0,0,0,0,0,0,0,0,0,0,0,0,0,0,0,0,0,0,0,0,0,0,0,0,0,0,0,0,0,0,0,0,0,0,0,0,0,0,0,0,0,0,0,0,0,0,0,0,0,0,0,0,0,0,0,0,0,0,0,0,0,0,0,0,0,0,0,0,0,0,0,0,0,0,0,0,0,0,0,0,0,0,0,0,0,0,0,0,0,0,0,0,0,0,0,0,0,0,0,0,0,0,0,0,0,0,0,0,0,0,0,0,0,0,0,0,0,0,0,0,0,0,0,0,0,0,0,0,0,0,0,0,0,0,0,0,0,0,0,0,0,0,0,0,0,0,0,0,0,0,0,0,0,0,0,0,0,0,0,0,0,0,0,0,0,0,0,0,0,0,0,0,0,0,0,0,0,0,0,0,0,0,0,0,0,0,0,0,0,0,0,0,0,0,0,0,0,0,0,0,0,0,0,0,0,0,0,0,0,0,0,0,0,0,0,0,0,0,0,0,0,0,0,0,0,0,0,0,0,0,0,0,0,0,0,0,0,0,0,0,0,0,0,0,0,0,0,0,0,0,0,0,0,0,0,0,0,0,0,0,0,0,0,0,0,0,0,0,0,0,0,0,0,0,0,0,0,0,0,0,0,0,0,0,0,0,0,0,0,0,0,0,0,0,0,0,0,0,0,0,0,0,0,0,0,0,0,0,0,0,0,0,0,0,0,0,0,0,0,0,0,0,0,0,0,0,0,0,0,0,0,0,0,0,0,0,0,0,0,0,0,0,0,0,0,0,0,0,0,0,0,0,0,0,0,0,0,0,0,0,0,0,0,0,0,0,0,0,0,0,0,0,0,0,0,0,0,0,0,0,0,0,0,0,0,0,0],"trees":[{"base_weights":[2.5083016E-5,-1.9174692E-1,1.0651615E-1,-2.2049072E-1,-2.1307692E-3,-2.1307692E-3,1.2475331E-1,-2.4153759E-1,-1.3155305E-1,2.0534482E-3,1.4308456E-1,-2.4645843E-1,-9.327265E-3,-9.327265E-3,-6.577653E-3,9.207676E-2,1.5151818E-1,-2.875318E-1,-1.0825093E-2,4.603838E-3,6.0898736E-3,1.2179747E-1,1.6315083E-1,-1.7054906E-2,-1.2600842E-2,6.0898736E-3,7.1237073E-3,7.3560486E-3,8.860944E-3],"categories":[],"categories_nodes":[],"categories_segments":[],"categories_sizes":[],"default_left":[0,0,0,0,0,0,0,0,0,0,0,0,0,0,0,0,0,0,0,0,0,0,0,0,0,0,0,0,0],"id":0,"left_children":[1,3,5,7,-1,-1,9,11,13,-1,15,17,-1,-1,-1,19,21,23,-1,-1,-1,25,27,-1,-1,-1,-1,-1,-1],"loss_changes":[7.4353237E0,1.0496001E0,1.1785502E0,3.3755684E-1,0E0,0E0,5.8204603E-1,1.9499779E-2,1.16488725E-1,0E0,8.126402E-2,8.756924E-2,0E0,0E0,0E0,9.507489E-2,1.0074425E-1,9.494829E-2,0E0,0E0,0E0,7.075384E-2,1.0097504E-2,0E0,0E0,0E0,0E0,0E0,0E0],"parents":[2147483647,0,0,1,1,2,2,3,3,6,6,7,7,8,8,10,10,11,11,15,15,16,16,17,17,21,21,22,22],"right_children":[2,4,6,8,-1,-1,10,12,14,-1,16,18,-1,-1,-1,20,22,24,-1,-1,-1,26,28,-1,-1,-1,-1,-1,-1],"split_conditions":[2.3418137E-1,3.5250688E-1,6.5038796E-3,3.078333E-1,-2.1307692E-3,-2.1307692E-3,2.3571864E-1,4.054054E-1,1.0714286E-1,2.0534482E-3,1.9444445E-1,2.4828305E-2,-9.327265E-3,-9.327265E-3,-6.577653E-3,3.04252E-1,3.2998616E-1,1.03323415E-1,-1.0825093E-2,4.603838E-3,6.0898736E-3,2.7742592E-1,5.925303E-1,-1.7054906E-2,-1.2600842E-2,6.0898736E-3,7.1237073E-3,7.3560486E-3,8.860944E-3],"split_indices":[3,2,2,1,0,0,1,0,0,0,0,2,0,0,0,1,3,1,0,0,0,2,1,0,0,0,0,0,0],"split_type":[0,0,0,0,0,0,0,0,0,0,0,0,0,0,0,0,0,0,0,0,0,0,0,0,0,0,0,0,0],"sum_hessian":[3.620838E2,1.2899162E2,2.330922E2,1.2360501E2,5.386607E0,6.0983577E0,2.2699384E2,1.0981436E2,1.3790651E1,1.8485672E1,2.0850816E2,1.0748561E2,2.3287487E0,3.015866E0,1.0774785E1,2.9834007E1,1.7867415E2,4.4943817E1,6.2541794E1,2.6362739E0,2.7197735E1,1.928094E1,1.5939322E2,2.6271202E1,1.8672613E1,1.350552E1,5.7754207E0,7.9857376E1,7.9535835E1],"tree_param":{"num_deleted":"0","num_feature":"5","num_nodes":"29","size_leaf_vector":"1"}},{"base_weights":[-6.448824E-3,-3.5415232E-1,6.468668E-2,-5.122926E-1,-1.943357E-1,-1.4473282E-1,8.3550215E-2,-6.511839E-1,-3.5331416E-1,-1.7665708E-2,-1.6475157E-1,-7.236641E-3,-1.1965686E-1,-3.0591302E-2,1.0664887E-1,-4.0683687E-2,-2.7567387E-2,-2.511245E-2,-1.7665708E-2,-2.5903288E-1,-7.236641E-3,-6.6097425E-3,-2.0992516E-3,-3.0591302E-2,1.4930259E-2,5.0407857E-2,1.668977E-1,-1.2951644E-2,-1.00941425E-2,-1.5295651E-3,-7.830521E-3,-3.9152606E-4,3.8028784E-2,3.8028784E-2,1.0865278E-1,1.0865278E-1,8.923709E-3,-9.605456E-4,-3.9152606E-4,7.5495656E-4,1.9014393E-3,1.9014393E-3,3.288272E-3,3.667039E-3,5.432639E-3,5.432639E-3,7.178174E-3],"categories":[],"categories_nodes":[],"categories_segments":[],"categories_sizes":[],"default_left":[0,0,0,0,0,0,0,0,0,0,0,0,0,0,0,0,0,0,0,0,0,0,0,0,0,0,0,0,0,0,0,0,0,0,0,0,0,0,0,0,0,0,0,0,0,0,0],"id":1,"left_children":[1,3,5,7,9,11,13,15,17,-1,19,-1,21,23,25,-1,-1,-1,-1,27,-1,-1,-1,29,31,33,35,-1,-1,-1,37,-1,39,41,43,45,-1,-1,-1,-1,-1,-1,-1,-1,-1,-1,-1],"loss_changes":[2.8368296E1,4.823509E0,5.3532157E0,3.8758125E0,4.585421E-1,2.8419495E-4,2.4347887E0,7.324581E-1,1.4475477E-1,0E0,6.0205007E-1,0E0,2.1048975E-1,1.852969E-1,2.549717E0,0E0,0E0,0E0,0E0,3.3484292E-1,0E0,0E0,0E0,1.026023E-1,1.5325324E-1,6.9762146E-1,3.8448143E-1,0E0,0E0,0E0,2.7556803E-2,0E0,4.2284906E-2,1.0606322E-1,2.7311683E-1,3.1989926E-1,0E0,0E0,0E0,0E0,0E0,0E0,0E0,0E0,0E0,0E0,0E0],"parents":[2147483647,0,0,1,1,2,2,3,3,4,4,5,5,6,6,7,7,8,8,10,10,12,12,13,13,14,14,19,19,23,23,24,24,25,25,26,26,30,30,32,32,33,33,34,34,35,35],"right_children":[2,4,6,8,10,12,14,16,18,-1,20,-1,22,24,26,-1,-1,-1,-1,28,-1,-1,-1,30,32,34,36,-1,-1,-1,38,-1,40,42,44,46,-1,-1,-1,-1,-1,-1,-1,-1,-1,-1,-1],"split_conditions":[2.3713021E-1,4.2163807E-1,1.2440985E-1,1.8681172E-1,9.677419E-2,2.1621622E-1,2.2727273E-1,3.796704E-2,9.816677E-2,-1.7665708E-2,6.127249E-1,-7.236641E-3,2.3307833E-1,5.5906814E-1,7.4543244E-1,-4.0683687E-2,-2.7567387E-2,-2.511245E-2,-1.7665708E-2,2.857143E-1,-7.236641E-3,-6.6097425E-3,-2.0992516E-3,6.2191176E-1,4.190145E-3,4.473684E-1,2.1996066E-1,-1.2951644E-2,-1.00941425E-2,-1.5295651E-3,2.0408164E-1,-3.9152606E-4,3.7668252E-1,5.672831E-1,4.6612853E-1,3.4880862E-1,8.923709E-3,-9.605456E-4,-3.9152606E-4,7.5495656E-4,1.9014393E-3,1.9014393E-3,3.288272E-3,3.667039E-3,5.432639E-3,5.432639E-3,7.178174E-3],"split_indices":[3,4,4,3,0,0,0,4,2,0,4,0,2,4,4,0,0,0,0,0,0,0,0,2,2,0,2,0,0,0,0,0,3,4,4,3,0,0,0,0,0,0,0,0,0,0,0],"split_type":[0,0,0,0,0,0,0,0,0,0,0,0,0,0,0,0,0,0,0,0,0,0,0,0,0,0,0,0,0,0,0,0,0,0,0,0,0,0,0,0,0,0,0,0,0,0,0],"sum_hessian":[1.1450061E3,1.9379181E2,9.5121436E2,9.629819E1,9.749362E1,4.7740513E1,9.034738E2,7.18056E1,2.4492588E1,1.2074206E1,8.541941E1,1.4975591E1,3.2764923E1,1.4951918E2,7.5395465E2,2.4606632E1,4.719897E1,2.75986E0,2.1732729E1,2.9725075E1,5.5694336E1,5.0995774E0,2.7665344E1,6.0647724E1,8.887146E1,3.9089713E2,3.6305753E2,2.4482582E1,5.242494E0,5.3775333E1,6.87239E0,3.9131162E0,8.495834E1,3.0481845E2,8.607868E1,2.9425518E1,3.3363202E2,2.5465574E0,4.3258324E0,3.9958622E1,4.499972E1,1.6607289E2,1.3874556E2,2.5023558E1,6.1055122E1,1.048497E1,1.8940546E1],"tree_param":{"num_deleted":"0","num_feature":"5","num_nodes":"47","size_leaf_vector":"1"}},{"base_weights":[3.8107987E-3,-3.111753E-1,5.5749863E-2,-4.956912E-1,-1.6436058E-1,-8.257937E-2,9.76716E-2,-6.5584105E-1,-3.300259E-1,-1.6501296E-2,-1.2771271E-1,-1.2771271E-1,-4.2013813E-2,7.5461157E-3,1.3790205E-1,-3.9078746E-2,-5.772191E-1,-2.4646675E-2,-1.6501296E-2,-1.8650152E-1,-6.3856356E-3,-6.3856356E-3,-8.486326E-2,-8.486326E-2,5.441155E-3,3.7730578E-4,7.272408E-2,3.6362042E-3,6.993241E-3,-3.1206677E-2,-2.4646675E-2,-1.1443466E-2,-7.855356E-3,-5.3143995E-3,-4.243163E-3,-4.243163E-3,-3.9711054E-2,-1.0741264E-2,3.7730578E-4,2.006755E-3,7.272408E-2,-3.114358E-3,-1.9855527E-3,-1.0250676E-3,-7.98787E-5,2.8214797E-3,3.6362042E-3],"categories":[],"categories_nodes":[],"categories_segments":[],"categories_sizes":[],"default_left":[0,0,0,0,0,0,0,0,0,0,0,0,0,0,0,0,0,0,0,0,0,0,0,0,0,0,0,0,0,0,0,0,0,0,0,0,0,0,0,0,0,0,0,0,0,0,0],"id":2,"left_children":[1,3,5,7,9,11,13,15,17,-1,19,21,23,25,27,-1,29,-1,-1,31,-1,-1,33,35,37,-1,39,-1,-1,-1,-1,-1,-1,-1,-1,-1,41,43,-1,-1,45,-1,-1,-1,-1,-1,-1],"loss_changes":[1.7601664E1,4.0441923E0,5.36364E0,3.1798153E0,5.152049E-1,7.501193E-1,3.5832276E0,2.6313782E-2,3.6804795E-2,0E0,9.597695E-2,3.3726454E-1,7.920624E-1,9.831157E-1,1.310339E-1,0E0,2.0291328E-2,0E0,0E0,4.8690927E-1,0E0,0E0,5.8666527E-2,9.149468E-2,4.312533E-2,0E0,3.0078912E-1,0E0,0E0,0E0,0E0,0E0,0E0,0E0,0E0,0E0,4.7265813E-2,2.5057523E-2,0E0,0E0,5.472684E-2,0E0,0E0,0E0,0E0,0E0,0E0],"parents":[2147483647,0,0,1,1,2,2,3,3,4,4,5,5,6,6,7,7,8,8,10,10,11,11,12,12,13,13,14,14,16,16,19,19,22,22,23,23,24,24,26,26,36,36,37,37,40,40],"right_children":[2,4,6,8,10,12,14,16,18,-1,20,22,24,26,28,-1,30,-1,-1,32,-1,-1,34,36,38,-1,40,-1,-1,-1,-1,-1,-1,-1,-1,-1,42,44,-1,-1,46,-1,-1,-1,-1,-1,-1],"split_conditions":[2.3418137E-1,4.2884594E-1,5.5906814E-1,1.799626E-1,1.0810811E-1,2.173913E-1,2.6530612E-1,3.796704E-2,8.207035E-2,-1.6501296E-2,6.4837396E-1,4.4593948E-1,3.3349556E-1,4.1218737E-1,4.190145E-3,-3.9078746E-2,1.8052925E-1,-2.4646675E-2,-1.6501296E-2,2.857143E-1,-6.3856356E-3,-6.3856356E-3,3.643863E-1,2.7742592E-1,9.6920913E-1,3.7730578E-4,7.012896E-1,3.6362042E-3,6.993241E-3,-3.1206677E-2,-2.4646675E-2,-1.1443466E-2,-7.855356E-3,-5.3143995E-3,-4.243163E-3,-4.243163E-3,2.969565E-1,4.5833334E-1,3.7730578E-4,2.006755E-3,1.6E-1,-3.114358E-3,-1.9855527E-3,-1.0250676E-3,-7.98787E-5,2.8214797E-3,3.6362042E-3],"split_indices":[3,4,4,3,0,0,0,4,2,0,4,4,3,3,2,0,2,0,0,0,0,0,3,2,3,0,4,0,0,0,0,0,0,0,0,0,3,0,0,0,0,0,0,0,0,0,0],"split_type":[0,0,0,0,0,0,0,0,0,0,0,0,0,0,0,0,0,0,0,0,0,0,0,0,0,0,0,0,0,0,0,0,0,0,0,0,0,0,0,0,0,0,0,0,0,0,0],"sum_hessian":[1.0738306E3,1.5129659E2,9.2253406E2,6.5987526E1,8.530906E1,2.143321E2,7.082019E2,4.7298985E1,1.868854E1,1.3229306E1,7.207975E1,5.1250454E1,1.6308167E2,1.5932663E2,5.488753E2,1.4757519E1,3.2541466E1,1.6793473E0,1.7009192E1,3.1489445E1,4.059031E1,3.414226E1,1.7108192E1,2.9128172E1,1.3395349E2,8.450038E1,7.4826256E1,1.4391712E0,5.474361E2,2.8137445E1,4.40402E0,2.5381897E1,6.107547E0,8.886122E0,8.22207E0,1.3307026E1,1.5821147E1,1.299107E2,4.0427747E0,1.35485115E1,6.1277744E1,6.791183E0,9.0299635E0,9.975511E1,3.0155598E1,3.0129535E0,5.826479E1],"tree_param":{"num_deleted":"0","num_feature":"5","num_nodes":"47","size_leaf_vector":"1"}},{"base_weights":[3.6165859E-3,-2.8015092E-1,5.098354E-2,-4.6052462E-1,-1.6241924E-1,-1.0380071E-1,8.9688405E-2,-6.12292E-1,-1.55735975E-2,-2.2402507E-1,-1.14583686E-1,-5.7291845E-3,-5.3045537E-2,-3.5280755E-4,9.505588E-2,-3.363569E-2,-2.3094099E-2,-2.794341E-1,-8.7604625E-3,-8.465218E-3,-5.7291845E-3,-4.190731E-3,-2.8767142E-2,7.242358E-2,1.0552203E-1,-1.55735975E-2,-1.1366084E-2,-5.629088E-2,-1.346444E-2,4.3999866E-2,8.897281E-2,8.897281E-2,5.7786717E-3,-2.8145441E-3,-1.7438829E-3,-1.7438829E-3,-3.5280755E-4,2.1999932E-3,3.3243168E-3,3.3243168E-3,4.4486406E-3,4.4486406E-3,5.113656E-3],"categories":[],"categories_nodes":[],"categories_segments":[],"categories_sizes":[],"default_left":[0,0,0,0,0,0,0,0,0,0,0,0,0,0,0,0,0,0,0,0,0,0,0,0,0,0,0,0,0,0,0,0,0,0,0,0,0,0,0,0,0,0,0],"id":3,"left_children":[1,3,5,7,9,11,13,15,-1,17,19,-1,21,-1,23,-1,-1,25,-1,-1,-1,-1,27,29,31,-1,-1,33,35,37,39,41,-1,-1,-1,-1,-1,-1,-1,-1,-1,-1,-1],"loss_changes":[1.3768471E1,3.0368528E0,5.267862E0,2.6851225E0,6.372161E-1,5.394963E-1,6.846266E-1,4.5537758E-1,0E0,1.4451957E-1,2.1754682E-2,0E0,2.9464254E-1,0E0,1.5732527E-1,0E0,0E0,4.3711066E-1,0E0,0E0,0E0,0E0,1.16207E-1,1.380164E0,1.731143E-1,0E0,0E0,1.0319978E-1,3.651963E-2,9.6200466E-2,7.726145E-2,1.5740898E-1,0E0,0E0,0E0,0E0,0E0,0E0,0E0,0E0,0E0,0E0,0E0],"parents":[2147483647,0,0,1,1,2,2,3,3,4,4,5,5,6,6,7,7,9,9,10,10,12,12,14,14,17,17,22,22,23,23,24,24,27,27,28,28,29,29,30,30,31,31],"right_children":[2,4,6,8,10,12,14,16,-1,18,20,-1,22,-1,24,-1,-1,26,-1,-1,-1,-1,28,30,32,-1,-1,34,36,38,40,42,-1,-1,-1,-1,-1,-1,-1,-1,-1,-1,-1],"split_conditions":[2.472758E-1,4.2884594E-1,5.5906814E-1,2.1996066E-1,3.0596593E-1,2.7565226E-1,6.1989453E-2,2.7878982E-1,-1.55735975E-2,8.3082035E-2,5.622313E-1,-5.7291845E-3,2.0345457E-2,-3.5280755E-4,7.6970553E-1,-3.363569E-2,-2.3094099E-2,6.640678E-1,-8.7604625E-3,-8.465218E-3,-5.7291845E-3,-4.190731E-3,3.3349556E-1,4.2428148E-1,2.4533743E-1,-1.55735975E-2,-1.1366084E-2,2.7742592E-1,6.8358354E-2,6.5059245E-1,1.3617997E-1,6.8247706E-1,5.7786717E-3,-2.8145441E-3,-1.7438829E-3,-1.7438829E-3,-3.5280755E-4,2.1999932E-3,3.3243168E-3,3.3243168E-3,4.4486406E-3,4.4486406E-3,5.113656E-3],"split_indices":[3,4,4,2,1,1,2,1,0,2,4,0,2,0,4,0,0,4,0,0,0,0,3,3,2,0,0,2,4,1,1,1,0,0,0,0,0,0,0,0,0,0,0],"split_type":[0,0,0,0,0,0,0,0,0,0,0,0,0,0,0,0,0,0,0,0,0,0,0,0,0,0,0,0,0,0,0,0,0,0,0,0,0,0,0,0,0,0,0],"sum_hessian":[1.02228546E3,1.455293E2,8.7675616E2,5.6324425E1,8.920487E1,1.750467E2,7.017094E2,4.3817932E1,1.2506495E1,7.0530914E1,1.867395E1,2.4712112E1,1.503346E2,6.268972E0,6.954405E2,3.6854572E1,6.96336E0,3.0821875E1,3.970904E1,2.6899004E0,1.5984051E1,4.500139E0,1.4583446E2,2.2241147E2,4.73029E2,1.4405846E1,1.6416029E1,2.1099487E1,1.2473497E2,7.142251E1,1.5098897E2,3.471434E1,4.3831467E2,1.7219788E1,3.879701E0,9.007592E0,1.1572737E2,6.8778336E1,2.6441736E0,1.7048202E0,1.4928413E2,2.6896236E1,7.818103E0],"tree_param":{"num_deleted":"0","num_feature":"5","num_nodes":"43","size_leaf_vector":"1"}},{"base_weights":[1.3050212E-2,-1.7819013E-1,7.274966E-2,-5.912696E-1,-1.1709906E-1,-5.2720234E-2,1.1336984E-1,-3.259472E-2,-1.7709216E-2,-2.9773486E-1,-5.2720234E-2,-5.2720234E-2,6.9475262E-3,3.0324802E-2,1.1889777E-1,-3.5418433E-1,-1.7522755E-1,-8.8300966E-2,-2.6360117E-3,-2.6360117E-3,-1.1443178E-3,-2.2886354E-2,3.0324802E-2,1.5162401E-3,7.461129E-2,3.7305646E-3,1.21021435E-1,-1.7709216E-2,-1.3235298E-2,-1.3235298E-2,-1.7522755E-1,-8.761378E-3,-3.5255298E-3,-1.1443178E-3,3.7192237E-3,1.8596118E-4,3.0324802E-2,2.6234023E-3,3.7305646E-3,4.890818E-3,1.2191332E-1,-1.09983375E-2,-8.761378E-3,-4.7917827E-4,1.8596118E-4,8.511007E-4,1.5162401E-3,5.6196596E-3,6.2275063E-3],"categories":[],"categories_nodes":[],"categories_segments":[],"categories_sizes":[],"default_left":[0,0,0,0,0,0,0,0,0,0,0,0,0,0,0,0,0,0,0,0,0,0,0,0,0,0,0,0,0,0,0,0,0,0,0,0,0,0,0,0,0,0,0,0,0,0,0,0,0],"id":4,"left_children":[1,3,5,7,9,11,13,-1,-1,15,17,19,21,23,25,27,29,31,-1,-1,-1,33,35,-1,37,-1,39,-1,-1,-1,41,-1,-1,-1,43,-1,45,-1,-1,-1,47,-1,-1,-1,-1,-1,-1,-1,-1],"loss_changes":[1.126921E1,5.8571815E0,4.229543E0,7.4757385E-1,3.0161338E0,4.3072414E-1,4.0650034E-1,0E0,0E0,1.3622437E0,4.6753585E-3,5.4351687E-2,6.316309E-1,2.567787E-1,9.920359E-2,1.0197067E-1,4.2804277E-1,1.660288E-1,0E0,0E0,0E0,4.9408615E-2,9.1739655E-2,0E0,2.4693161E-2,0E0,1.29003525E-2,0E0,0E0,0E0,1.5627766E-1,0E0,0E0,0E0,1.2254337E-1,0E0,1.5058368E-2,0E0,0E0,0E0,6.389618E-5,0E0,0E0,0E0,0E0,0E0,0E0,0E0,0E0],"parents":[2147483647,0,0,1,1,2,2,3,3,4,4,5,5,6,6,9,9,10,10,11,11,12,12,13,13,14,14,15,15,16,16,17,17,21,21,22,22,24,24,26,26,30,30,34,34,36,36,40,40],"right_children":[2,4,6,8,10,12,14,-1,-1,16,18,20,22,24,26,28,30,32,-1,-1,-1,34,36,-1,38,-1,40,-1,-1,-1,42,-1,-1,-1,44,-1,46,-1,-1,-1,48,-1,-1,-1,-1,-1,-1,-1,-1],"split_conditions":[5.5906814E-1,2.4828305E-2,2.6530612E-1,5.5570203E-1,2.7565226E-1,6.902167E-1,1.5911342E-1,-3.259472E-2,-1.7709216E-2,3.3746496E-1,9.074091E-2,6.992745E-1,4.8985982E-1,5.209592E-1,4.4058565E-2,3.284335E-1,7.599075E-2,4.2261124E-1,-2.6360117E-3,-2.6360117E-3,-1.1443178E-3,7.9881996E-1,1.4634146E-1,1.5162401E-3,7.585505E-1,3.7305646E-3,5.622313E-1,-1.7709216E-2,-1.3235298E-2,-1.3235298E-2,1.724138E-1,-8.761378E-3,-3.5255298E-3,-1.1443178E-3,2.195122E-1,1.8596118E-4,5.8759168E-2,2.6234023E-3,3.7305646E-3,4.890818E-3,7.585505E-1,-1.09983375E-2,-8.761378E-3,-4.7917827E-4,1.8596118E-4,8.511007E-4,1.5162401E-3,5.6196596E-3,6.2275063E-3],"split_indices":[4,2,0,4,1,4,1,0,0,4,2,2,1,2,2,2,1,1,0,0,0,4,0,0,4,0,4,0,0,0,0,0,0,0,0,0,2,0,0,0,4,0,0,0,0,0,0,0,0],"split_type":[0,0,0,0,0,0,0,0,0,0,0,0,0,0,0,0,0,0,0,0,0,0,0,0,0,0,0,0,0,0,0,0,0,0,0,0,0,0,0,0,0,0,0,0,0,0,0,0,0],"sum_hessian":[9.8492487E2,2.3384486E2,7.5107996E2,2.9009924E1,2.0483493E2,1.6946054E2,5.8161945E2,2.7882118E1,1.1278049E0,6.349915E1,1.4133578E2,4.8698166E1,1.2076237E2,1.8522072E1,5.6309735E2,3.1712324E1,3.1786823E1,4.8885345E0,1.3644725E2,4.5983967E1,2.7142007E0,6.882037E1,5.1941998E1,9.947271E0,8.5748E0,1.8012508E0,5.6129614E2,1.9746809E1,1.1965515E1,9.064486E0,2.2722338E1,1.4318966E0,3.456638E0,3.0992489E1,3.7827885E1,2.173378E0,4.976862E1,4.4282146E0,4.1465855E0,2.1566179E0,5.591395E2,4.7817907E0,1.7940548E1,1.515956E1,2.2668325E1,2.0232928E0,4.7745327E1,1.3073772E2,4.2840176E2],"tree_param":{"num_deleted":"0","num_feature":"5","num_nodes":"49","size_leaf_vector":"1"}},{"base_weights":[-6.9422075E-3,-2.7717823E-1,3.1101545E-2,-4.6519178E-1,-1.5689613E-1,-1.20472886E-1,6.393192E-2,-3.0466652E-2,-3.1104395E-1,-1.5552198E-2,-1.23038344E-1,-1.23038344E-1,-2.8270483E-2,-2.8270483E-2,1.00643806E-1,-2.3009425E-2,-1.5552198E-2,-1.6780876E-1,-6.1519174E-3,-1.23038344E-1,-1.07655264E-1,-3.782721E-3,-1.4135242E-3,-2.8270483E-2,1.8093331E-3,1.8093331E-3,5.106622E-3,-1.08520575E-2,-7.2711776E-3,-6.1519174E-3,-5.7673403E-3,-5.7673403E-3,-3.782721E-3,-1.4135242E-3,-2.2794593E-2,-1.276627E-3,1.9790446E-4],"categories":[],"categories_nodes":[],"categories_segments":[],"categories_sizes":[],"default_left":[0,0,0,0,0,0,0,0,0,0,0,0,0,0,0,0,0,0,0,0,0,0,0,0,0,0,0,0,0,0,0,0,0,0,0,0,0],"id":5,"left_children":[1,3,5,7,9,11,13,-1,15,-1,17,19,21,23,25,-1,-1,27,-1,29,31,-1,-1,33,-1,-1,-1,-1,-1,-1,-1,-1,-1,-1,35,-1,-1],"loss_changes":[9.951794E0,2.6284475E0,4.231068E0,1.8155966E0,5.165664E-1,2.626891E-1,3.6315978E0,0E0,2.8144956E-2,0E0,3.8951516E-2,1.1321783E-2,6.1915584E-2,1.7039502E-1,1.0386181E-1,0E0,0E0,4.8502344E-1,0E0,3.5127997E-2,1.8505824E-1,0E0,0E0,6.427169E-4,0E0,0E0,0E0,0E0,0E0,0E0,0E0,0E0,0E0,0E0,2.924755E-1,0E0,0E0],"parents":[2147483647,0,0,1,1,2,2,3,3,4,4,5,5,6,6,8,8,10,10,11,11,12,12,13,13,14,14,17,17,19,19,20,20,23,23,34,34],"right_children":[2,4,6,8,10,12,14,-1,16,-1,18,20,22,24,26,-1,-1,28,-1,30,32,-1,-1,34,-1,-1,-1,-1,-1,-1,-1,-1,-1,-1,36,-1,-1],"split_conditions":[2.3418137E-1,4.2884594E-1,5.5906814E-1,2.1996066E-1,9.677419E-2,9.6920913E-1,2.6530612E-1,-3.0466652E-2,1.6443986E-1,-1.5552198E-2,6.4837396E-1,2.173913E-1,4.117647E-1,7.62309E-1,4.190145E-3,-2.3009425E-2,-1.5552198E-2,2.857143E-1,-6.1519174E-3,4.585468E-1,3.116423E-1,-3.782721E-3,-1.4135242E-3,4.271129E-1,1.8093331E-3,1.8093331E-3,5.106622E-3,-1.08520575E-2,-7.2711776E-3,-6.1519174E-3,-5.7673403E-3,-5.7673403E-3,-3.782721E-3,-1.4135242E-3,7.2239614E-1,-1.276627E-3,1.9790446E-4],"split_indices":[3,4,4,2,0,3,0,0,3,0,4,0,0,2,2,0,0,0,0,4,3,0,0,3,0,0,0,0,0,0,0,0,0,0,4,0,0],"split_type":[0,0,0,0,0,0,0,0,0,0,0,0,0,0,0,0,0,0,0,0,0,0,0,0,0,0,0,0,0,0,0,0,0,0,0,0,0],"sum_hessian":[9.6616034E2,1.1845484E2,8.477055E2,4.5096603E1,7.335824E1,1.5044536E2,6.9726013E2,3.280305E1,1.2293555E1,8.173495E0,6.5184746E1,1.4646101E2,3.984334E0,1.22499626E2,5.747605E2,1.7920119E0,1.0501544E1,2.5985683E1,3.919906E1,3.5645325E1,1.108157E2,1.1289407E0,2.8553934E0,1.1852482E2,3.9748063E0,1.5165777E0,5.7324396E2,2.061007E1,5.3756146E0,2.3556187E1,1.2089137E1,1.2392801E1,9.842289E1,7.143558E1,4.7089237E1,1.19252405E1,3.5163998E1],"tree_param":{"num_deleted":"0","num_feature":"5","num_nodes":"37","size_leaf_vector":"1"}},{"base_weights":[-2.8434761E-3,-2.5881684E-1,2.4231147E-2,-4.9666607E-1,-1.4750567E-1,-1.16940774E-1,4.487157E-2,-3.263734E-2,-1.6104294E-2,-2.7166906E-1,-1.17292844E-1,-1.17292844E-1,-3.6034603E-2,-3.5756912E-2,5.902311E-2,-1.6104294E-2,-1.9448096E-1,-1.7257266E-1,-1.17292844E-1,-5.864642E-3,-3.8331863E-3,-7.6663725E-2,-3.6034603E-2,-3.6034603E-2,1.23797E-3,1.1633098E-2,8.0288865E-2,-1.29141705E-2,-9.724048E-3,-9.724048E-3,-7.2466373E-3,-7.2466373E-3,-5.864642E-3,-3.8331863E-3,-2.8174582E-3,-2.8174582E-3,-3.6034603E-2,-1.8017301E-3,-1.7398316E-2,-1.2225086E-2,1.1633098E-2,5.816549E-4,2.2980492E-3,2.2980492E-3,4.1118255E-3,-2.3095943E-3,-1.8017301E-3,-1.335823E-3,-8.699158E-4,-8.699158E-4,-1.4799693E-5,-1.4799693E-5,5.816549E-4],"categories":[],"categories_nodes":[],"categories_segments":[],"categories_sizes":[],"default_left":[0,0,0,0,0,0,0,0,0,0,0,0,0,0,0,0,0,0,0,0,0,0,0,0,0,0,0,0,0,0,0,0,0,0,0,0,0,0,0,0,0,0,0,0,0,0,0,0,0,0,0,0,0],"id":6,"left_children":[1,3,5,7,9,11,13,-1,-1,15,17,19,21,23,25,-1,27,29,31,-1,-1,33,35,37,39,41,43,-1,-1,-1,-1,-1,-1,-1,-1,-1,45,-1,47,49,51,-1,-1,-1,-1,-1,-1,-1,-1,-1,-1,-1,-1],"loss_changes":[6.5389647E0,2.316146E0,2.4918258E0,1.0328555E0,4.6094418E-1,6.200714E-1,8.524364E-1,0E0,0E0,6.544466E-1,8.441615E-2,3.7658215E-3,4.1968238E-1,1.2045583E-1,1.2731178E0,0E0,1.1152667E-1,5.0769746E-2,1.5287995E-3,0E0,0E0,4.155153E-2,8.265403E-2,1.24409914E-1,3.6836997E-2,3.122972E-2,7.4206114E-2,0E0,0E0,0E0,0E0,0E0,0E0,0E0,0E0,0E0,3.1369925E-4,0E0,1.7444327E-2,1.3528038E-2,5.166875E-3,0E0,0E0,0E0,0E0,0E0,0E0,0E0,0E0,0E0,0E0,0E0,0E0],"parents":[2147483647,0,0,1,1,2,2,3,3,4,4,5,5,6,6,9,9,10,10,11,11,12,12,13,13,14,14,16,16,17,17,18,18,21,21,22,22,23,23,24,24,25,25,26,26,36,36,38,38,39,39,40,40],"right_children":[2,4,6,8,10,12,14,-1,-1,16,18,20,22,24,26,-1,28,30,32,-1,-1,34,36,38,40,42,44,-1,-1,-1,-1,-1,-1,-1,-1,-1,46,-1,48,50,52,-1,-1,-1,-1,-1,-1,-1,-1,-1,-1,-1,-1],"split_conditions":[1.6703588E-1,3.3746496E-1,2.1428572E-1,2.2602487E-1,5.427187E-1,4.4593948E-1,5.6425893E-1,-3.263734E-2,-1.6104294E-2,9.058414E-2,5.209592E-1,2.0689656E-1,2.927422E-1,2.5874376E-1,2.6530612E-1,-1.6104294E-2,1.7142858E-1,1.5492934E-1,7.8672045E-1,-5.864642E-3,-3.8331863E-3,5.4471207E-1,1.0714286E-1,5.275722E-1,9.3675965E-1,7.379106E-1,4.4058565E-2,-1.29141705E-2,-9.724048E-3,-9.724048E-3,-7.2466373E-3,-7.2466373E-3,-5.864642E-3,-3.8331863E-3,-2.8174582E-3,-2.8174582E-3,3.6260333E-2,-1.8017301E-3,3.1096578E-1,4.5833334E-1,3.7142858E-1,5.816549E-4,2.2980492E-3,2.2980492E-3,4.1118255E-3,-2.3095943E-3,-1.8017301E-3,-1.335823E-3,-8.699158E-4,-8.699158E-4,-1.4799693E-5,-1.4799693E-5,5.816549E-4],"split_indices":[1,4,0,2,4,4,4,0,0,1,2,0,1,2,0,0,0,1,4,0,0,2,0,1,1,2,2,0,0,0,0,0,0,0,0,0,2,0,4,0,0,0,0,0,0,0,0,0,0,0,0,0,0],"split_type":[0,0,0,0,0,0,0,0,0,0,0,0,0,0,0,0,0,0,0,0,0,0,0,0,0,0,0,0,0,0,0,0,0,0,0,0,0,0,0,0,0,0,0,0,0,0,0,0,0,0,0,0,0],"sum_hessian":[9.4161646E2,8.925048E1,8.5236597E2,2.7349094E1,6.1901382E1,1.0813076E2,7.442352E2,1.7297863E1,1.0051231E1,2.13279E1,4.0573483E1,2.6158314E1,8.197244E1,1.108933E2,6.333419E2,1.1649825E1,9.678075E0,3.1126423E1,9.44706E0,2.451533E1,1.6429844E0,1.6434803E1,6.553764E1,2.424643E1,8.664687E1,6.1985695E1,5.713562E2,3.3629558E0,6.3151193E0,2.9933462E1,1.1929604E0,5.5385847E0,3.908475E0,1.5406092E1,1.0287112E0,5.1470447E0,6.03906E1,1.3852911E1,1.03935175E1,8.059219E1,6.0546756E0,6.067252E1,1.3131742E0,1.8135136E0,5.695427E2,6.521993E0,5.3868603E1,2.7516673E0,7.64185E0,6.155099E1,1.9041204E1,1.3999219E0,4.6547537E0],"tree_param":{"num_deleted":"0","num_feature":"5","num_nodes":"53","size_leaf_vector":"1"}},{"base_weights":[-5.923602E-3,-2.6057824E-1,2.7046965E-2,-4.4213304E-1,-1.4958373E-1,-1.0265159E-1,5.311144E-2,-2.8126394E-2,-2.9585838E-1,-2.9585838E-1,-1.23335056E-1,-1.1676564E-1,-6.875964E-2,-2.4770074E-2,8.079858E-2,-2.1459658E-2,-1.4792919E-2,-1.4792919E-2,-1.0479837E-2,-1.4800225E-1,-5.838282E-3,-5.838282E-3,-9.276264E-2,-4.638132E-3,-2.4770074E-2,-2.4770074E-2,1.4007128E-3,1.4007128E-3,4.111395E-3,-1.0479837E-2,-6.6191973E-3,-5.238207E-3,-4.638132E-3,-1.720114E-3,-1.2385037E-3,-1.2385037E-3,-1.8624261E-2,-1.0848584E-3,8.110451E-5],"categories":[],"categories_nodes":[],"categories_segments":[],"categories_sizes":[],"default_left":[0,0,0,0,0,0,0,0,0,0,0,0,0,0,0,0,0,0,0,0,0,0,0,0,0,0,0,0,0,0,0,0,0,0,0,0,0,0,0],"id":7,"left_children":[1,3,5,7,9,11,13,-1,15,17,19,21,23,25,27,-1,-1,-1,-1,29,-1,-1,31,-1,33,35,-1,-1,-1,-1,-1,-1,-1,-1,-1,-1,37,-1,-1],"loss_changes":[7.9005938E0,2.107473E0,2.8223774E0,1.1541524E0,2.7963698E-1,2.0566046E-1,2.2909966E0,0E0,1.2666345E-2,9.407282E-3,1.1656702E-2,1.3178837E-1,4.5313966E-1,1.6179883E-1,8.435559E-2,0E0,0E0,0E0,0E0,4.401886E-1,0E0,0E0,2.2802532E-2,0E0,7.989056E-3,1.1196136E-3,0E0,0E0,0E0,0E0,0E0,0E0,0E0,0E0,0E0,0E0,2.0852527E-1,0E0,0E0],"parents":[2147483647,0,0,1,1,2,2,3,3,4,4,5,5,6,6,8,8,9,9,10,10,11,11,12,12,13,13,14,14,19,19,22,22,24,24,25,25,36,36],"right_children":[2,4,6,8,10,12,14,-1,16,18,20,22,24,26,28,-1,-1,-1,-1,30,-1,-1,32,-1,34,36,-1,-1,-1,-1,-1,-1,-1,-1,-1,-1,38,-1,-1],"split_conditions":[2.3713021E-1,4.2884594E-1,5.5906814E-1,2.1996066E-1,9.677419E-2,2.173913E-1,2.6530612E-1,-2.8126394E-2,1.7081966E-1,7.570048E-2,6.842379E-1,4.5121813E-1,3.116423E-1,7.62309E-1,4.190145E-3,-2.1459658E-2,-1.4792919E-2,-1.4792919E-2,-1.0479837E-2,2.857143E-1,-5.838282E-3,-5.838282E-3,3.643863E-1,-4.638132E-3,9.6920913E-1,4.1218737E-1,1.4007128E-3,1.4007128E-3,4.111395E-3,-1.0479837E-2,-6.6191973E-3,-5.238207E-3,-4.638132E-3,-1.720114E-3,-1.2385037E-3,-1.2385037E-3,7.005735E-1,-1.0848584E-3,8.110451E-5],"split_indices":[3,4,4,2,0,0,0,0,3,3,4,4,3,2,2,0,0,0,0,0,0,0,3,0,3,3,0,0,0,0,0,0,0,0,0,0,4,0,0],"split_type":[0,0,0,0,0,0,0,0,0,0,0,0,0,0,0,0,0,0,0,0,0,0,0,0,0,0,0,0,0,0,0,0,0,0,0,0,0,0,0],"sum_hessian":[9.391433E2,1.0686295E2,8.322804E2,3.9412376E1,6.745058E1,1.3877725E2,6.935031E2,2.862002E1,1.0792357E1,6.908506E0,6.0542072E1,3.2538776E1,1.0623847E2,1.10896904E2,5.826062E2,3.0864534E0,7.7059035E0,3.9096503E0,2.9988558E0,2.7642256E1,3.289982E1,2.1188559E1,1.1350218E1,1.1199188E1,9.503928E1,1.0728434E2,3.6125586E0,1.3994087E0,5.812068E2,2.1314281E1,6.327975E0,5.5449457E0,5.8052726E0,9.1721146E1,3.3181412E0,6.2398663E1,4.488568E1,1.1507395E1,3.3378284E1],"tree_param":{"num_deleted":"0","num_feature":"5","num_nodes":"39","size_leaf_vector":"1"}},{"base_weights":[4.3968325E-3,-2.41086E-1,3.6856674E-2,-4.9473113E-1,-1.4263664E-1,-7.163414E-2,5.735997E-2,-3.180665E-2,-1.5934195E-2,-2.8689742E-1,-1.0211466E-1,-5.1057334E-3,-2.9880175E-2,-7.1370862E-3,8.2378834E-2,-1.5934195E-2,-9.725302E-3,-1.9450605E-1,-5.1057334E-3,-5.774702E-2,-7.1370862E-3,-3.5685432E-4,7.678366E-3,1.8810437E-3,4.218147E-3,-9.725302E-3,-7.415518E-3,-6.599742E-2,-3.2442056E-2,-1.6221028E-3,-7.1370862E-3,2.7063978E-4,3.7620872E-2,-3.2998712E-3,-2.460987E-3,-2.460987E-3,-1.6221028E-3,-9.894785E-4,-3.5685432E-4,1.3531989E-5,9.472878E-4,9.472878E-4,1.8810437E-3],"categories":[],"categories_nodes":[],"categories_segments":[],"categories_sizes":[],"default_left":[0,0,0,0,0,0,0,0,0,0,0,0,0,0,0,0,0,0,0,0,0,0,0,0,0,0,0,0,0,0,0,0,0,0,0,0,0,0,0,0,0,0,0],"id":8,"left_children":[1,3,5,7,9,11,13,-1,-1,15,17,-1,19,21,23,-1,-1,25,-1,27,29,-1,31,-1,-1,-1,-1,33,35,-1,37,39,41,-1,-1,-1,-1,-1,-1,-1,-1,-1,-1],"loss_changes":[7.4524713E0,2.6569853E0,1.8412974E0,8.448782E-1,7.4564946E-1,4.898771E-1,1.7680233E0,0E0,0E0,3.7150383E-1,3.7037003E-1,0E0,1.8374608E-1,1.830133E-2,1.00975275E-1,0E0,0E0,1.1461151E-1,0E0,1.3367954E-1,4.176254E-2,0E0,2.7637213E-1,0E0,0E0,0E0,0E0,2.2613168E-2,1.7542511E-2,0E0,1.5194457E-2,9.022518E-2,4.758948E-2,0E0,0E0,0E0,0E0,0E0,0E0,0E0,0E0,0E0,0E0],"parents":[2147483647,0,0,1,1,2,2,3,3,4,4,5,5,6,6,9,9,10,10,12,12,13,13,14,14,17,17,19,19,20,20,22,22,27,27,28,28,30,30,31,31,32,32],"right_children":[2,4,6,8,10,12,14,-1,-1,16,18,-1,20,22,24,-1,-1,26,-1,28,30,-1,32,-1,-1,-1,-1,34,36,-1,38,40,42,-1,-1,-1,-1,-1,-1,-1,-1,-1,-1],"split_conditions":[2.3571864E-1,3.3746496E-1,5.6425893E-1,2.367784E-1,8.3082035E-2,9.074091E-2,2.6530612E-1,-3.180665E-2,-1.5934195E-2,6.820661E-1,2.857143E-1,-5.1057334E-3,4.473684E-1,6.902167E-1,4.4058565E-2,-1.5934195E-2,-9.725302E-3,5.8300674E-1,-5.1057334E-3,6.3042265E-1,1.6856503E-1,-3.5685432E-4,4.8985982E-1,1.8810437E-3,4.218147E-3,-9.725302E-3,-7.415518E-3,6.402809E-1,2.244898E-1,-1.6221028E-3,4.6997803E-1,7.9881996E-1,6.1989453E-2,-3.2998712E-3,-2.460987E-3,-2.460987E-3,-1.6221028E-3,-9.894785E-4,-3.5685432E-4,1.3531989E-5,9.472878E-4,9.472878E-4,1.8810437E-3],"split_indices":[1,4,4,2,2,2,0,0,0,4,0,0,0,4,2,0,0,2,0,1,4,0,1,0,0,0,0,2,0,0,2,4,2,0,0,0,0,0,0,0,0,0,0],"split_type":[0,0,0,0,0,0,0,0,0,0,0,0,0,0,0,0,0,0,0,0,0,0,0,0,0,0,0,0,0,0,0,0,0,0,0,0,0,0,0,0,0,0,0],"sum_hessian":[9.331459E2,1.0822785E2,8.24918E2,2.9136164E1,7.909169E1,1.3072232E2,6.941957E2,1.765995E1,1.1476213E1,2.4994955E1,5.4096733E1,1.2384625E1,1.183377E2,1.1364814E2,5.8054755E2,1.393128E1,1.1063676E1,3.0729631E1,2.3367104E1,9.485678E1,2.3480919E1,3.103779E1,8.261035E1,1.4585543E0,5.79089E2,2.827736E1,2.4522707E0,6.764422E1,2.721256E1,1.4374886E0,2.204343E1,4.2973022E1,3.963733E1,6.044408E1,7.2001376E0,4.6033316E0,2.260923E1,5.41412E0,1.662931E1,2.2359156E1,2.0613865E1,3.0020328E0,3.6635296E1],"tree_param":{"num_deleted":"0","num_feature":"5","num_nodes":"43","size_leaf_vector":"1"}},{"base_weights":[-1.0662363E-2,-2.6081777E-1,1.9489923E-2,-3.136123E-1,-1.2066392E-1,-8.6081594E-2,4.455646E-2,-1.8004378E-2,-2.1713811E-1,-1.0856906E-2,-6.033196E-3,-1.2066392E-1,-2.0762566E-2,-2.0762566E-2,4.8589095E-2,-1.4430642E-2,-1.0856906E-2,-6.033196E-3,-7.0713244E-2,-3.5356623E-3,-2.0762566E-2,-1.0381284E-3,6.956632E-4,6.956632E-4,2.5083206E-3,-4.784429E-3,-3.5356623E-3,-4.5737907E-2,-1.0381284E-3,-2.2868954E-3,-1.6625117E-3],"categories":[],"categories_nodes":[],"categories_segments":[],"categories_sizes":[],"default_left":[0,0,0,0,0,0,0,0,0,0,0,0,0,0,0,0,0,0,0,0,0,0,0,0,0,0,0,0,0,0,0],"id":9,"left_children":[1,3,5,7,9,11,13,-1,15,-1,-1,17,19,21,23,-1,-1,-1,25,-1,27,-1,-1,-1,-1,-1,-1,29,-1,-1,-1],"loss_changes":[6.760602E0,1.2146702E0,2.1214643E0,4.3415642E-1,1.7717275E-1,8.147042E-1,2.984357E-1,0E0,1.3113713E-1,0E0,0E0,3.1425953E-1,4.460582E-1,1.002456E-1,6.887853E-2,0E0,0E0,0E0,8.5271806E-2,0E0,1.01210624E-1,0E0,0E0,0E0,0E0,0E0,0E0,9.335503E-3,0E0,0E0,0E0],"parents":[2147483647,0,0,1,1,2,2,3,3,4,4,5,5,6,6,8,8,11,11,12,12,13,13,14,14,18,18,20,20,27,27],"right_children":[2,4,6,8,10,12,14,-1,16,-1,-1,18,20,22,24,-1,-1,-1,26,-1,28,-1,-1,-1,-1,-1,-1,30,-1,-1,-1],"split_conditions":[2.3713021E-1,3.078333E-1,2.6530612E-1,1.9702467E-1,1.0714286E-1,3.994416E-1,1.5358967E-1,-1.8004378E-2,2.0689656E-1,-1.0856906E-2,-6.033196E-3,4.8985982E-1,1.6E-1,5.2E-1,4.190145E-3,-1.4430642E-2,-1.0856906E-2,-6.033196E-3,6.5038796E-3,-3.5356623E-3,1.550646E-1,-1.0381284E-3,6.956632E-4,6.956632E-4,2.5083206E-3,-4.784429E-3,-3.5356623E-3,2.0408164E-1,-1.0381284E-3,-2.2868954E-3,-1.6625117E-3],"split_indices":[3,1,0,2,0,3,1,0,0,0,0,1,0,0,2,0,0,0,2,0,2,0,0,0,0,0,0,0,0,0,0],"split_type":[0,0,0,0,0,0,0,0,0,0,0,0,0,0,0,0,0,0,0,0,0,0,0,0,0,0,0,0,0,0,0],"sum_hessian":[8.946299E2,9.5411125E1,7.9921875E2,8.288719E1,1.2523931E1,1.5288525E2,6.463335E2,6.076138E1,2.2125813E1,2.298586E0,1.0225345E1,8.274048E1,7.0144775E1,1.0954154E1,6.353794E2,7.6327434E0,1.4493069E1,5.9534748E1,2.320573E1,6.832455E0,6.3312317E1,9.362712E0,1.5914419E0,1.6164428E0,6.3376294E2,4.0087647E0,1.9196966E1,5.905856E0,5.7406464E1,3.5006902E0,2.405166E0],"tree_param":{"num_deleted":"0","num_feature":"5","num_nodes":"31","size_leaf_vector":"1"}},{"base_weights":[7.1198945E-3,-2.2908247E-1,3.3920873E-2,-4.5214146E-1,-1.4602132E-1,-7.147831E-2,5.374164E-2,-2.9641038E-2,-1.495407E-2,-2.032122E-1,-9.75808E-2,-9.75808E-2,-3.3946548E-2,-8.868333E-3,7.484448E-2,-2.557653E-1,-1.5117651E-1,-7.519825E-3,-4.87904E-3,-4.87904E-3,-6.5763675E-2,-3.2881838E-3,-8.868333E-3,-8.868333E-3,3.298807E-2,3.298807E-2,7.7663675E-2,-1.495407E-2,-1.0173545E-2,-2.034709E-1,-7.519825E-3,-8.167224E-2,-3.2881838E-3,-1.8658001E-3,-8.868333E-3,-4.4341665E-4,1.2059869E-2,1.2059869E-2,1.6494036E-3,1.6494036E-3,2.7662937E-3,2.7662937E-3,3.924781E-3,-1.0173545E-2,-8.846685E-3,-4.083612E-3,-3.6858977E-3,-1.1546084E-3,-4.4341665E-4,7.9788406E-5,6.029935E-4,6.029935E-4,1.1261984E-3],"categories":[],"categories_nodes":[],"categories_segments":[],"categories_sizes":[],"default_left":[0,0,0,0,0,0,0,0,0,0,0,0,0,0,0,0,0,0,0,0,0,0,0,0,0,0,0,0,0,0,0,0,0,0,0,0,0,0,0,0,0,0,0,0,0,0,0,0,0,0,0,0,0],"id":10,"left_children":[1,3,5,7,9,11,13,-1,-1,15,17,19,21,23,25,27,29,-1,-1,-1,31,-1,33,35,37,39,41,-1,-1,43,-1,45,-1,-1,47,-1,49,51,-1,-1,-1,-1,-1,-1,-1,-1,-1,-1,-1,-1,-1,-1,-1],"loss_changes":[5.6778345E0,1.6274304E0,1.6861427E0,9.540076E-1,4.8584354E-1,3.1206644E-1,1.0349704E0,0E0,0E0,1.2189078E-1,8.077246E-2,2.6994705E-2,2.1741745E-1,5.331903E-1,1.0910368E-1,3.2919955E-1,9.92977E-2,0E0,0E0,0E0,3.8578954E-2,0E0,1.0889492E-1,4.1220948E-2,1.21518165E-1,8.5503384E-2,1.5508652E-2,0E0,0E0,7.1394444E-4,0E0,6.567538E-3,0E0,0E0,3.6256257E-3,0E0,2.6272789E-2,1.05653666E-1,0E0,0E0,0E0,0E0,0E0,0E0,0E0,0E0,0E0,0E0,0E0,0E0,0E0,0E0,0E0],"parents":[2147483647,0,0,1,1,2,2,3,3,4,4,5,5,6,6,9,9,10,10,11,11,12,12,13,13,14,14,15,15,16,16,20,20,22,22,23,23,24,24,25,25,26,26,29,29,31,31,34,34,36,36,37,37],"right_children":[2,4,6,8,10,12,14,-1,-1,16,18,20,22,24,26,28,30,-1,-1,-1,32,-1,34,36,38,40,42,-1,-1,44,-1,46,-1,-1,48,-1,50,52,-1,-1,-1,-1,-1,-1,-1,-1,-1,-1,-1,-1,-1,-1,-1],"split_conditions":[2.3418137E-1,3.325087E-1,5.5906814E-1,1.9423173E-1,3.2156378E-1,3.3349556E-1,3.12388E-1,-2.9641038E-2,-1.495407E-2,8.3082035E-2,7.190186E-1,2.7742592E-1,7.687069E-2,7.9881996E-1,1.4468442E-1,6.640678E-1,5.130591E-2,-7.519825E-3,-4.87904E-3,-4.87904E-3,2.6446518E-1,-3.2881838E-3,2.3127574E-1,5.868739E-1,2.720928E-1,9.637096E-1,5.6425893E-1,-1.495407E-2,-1.0173545E-2,5.912828E-1,-7.519825E-3,3.2326818E-1,-3.2881838E-3,-1.8658001E-3,1.3650818E-1,-4.4341665E-4,4.2428148E-1,6.8247706E-1,1.6494036E-3,1.6494036E-3,2.7662937E-3,2.7662937E-3,3.924781E-3,-1.0173545E-2,-8.846685E-3,-4.083612E-3,-3.6858977E-3,-1.1546084E-3,-4.4341665E-4,7.9788406E-5,6.029935E-4,6.029935E-4,1.1261984E-3],"split_indices":[3,4,4,3,1,3,2,0,0,2,4,2,2,4,1,4,1,0,0,0,1,0,1,1,2,4,4,0,0,4,0,3,0,0,4,0,3,1,0,0,0,0,0,0,0,0,0,0,0,0,0,0,0],"split_type":[0,0,0,0,0,0,0,0,0,0,0,0,0,0,0,0,0,0,0,0,0,0,0,0,0,0,0,0,0,0,0,0,0,0,0,0,0,0,0,0,0,0,0,0,0,0,0,0,0,0,0,0,0],"sum_hessian":[8.9468024E2,9.0401985E1,8.0427826E2,2.3323563E1,6.707842E1,1.2689477E2,6.773835E2,1.769775E1,5.6258125E0,5.7712215E1,9.366204E0,2.6957195E1,9.993758E1,1.5121376E2,5.2616974E2,2.6765442E1,3.0946774E1,3.6135182E0,5.7526855E0,1.4866196E1,1.2090999E1,3.1284456E0,9.680913E1,8.727356E1,6.394021E1,9.225004E0,5.169447E2,1.4393383E1,1.237206E1,9.789991E0,2.1156782E1,9.624406E0,2.466593E0,3.5098252E0,9.32993E1,4.7252075E1,4.0021484E1,4.841289E1,1.5527315E1,6.8762884E0,2.3487158E0,1.9349009E0,5.150098E2,4.33498E0,5.4550114E0,8.053275E0,1.5711308E0,9.444496E0,8.3854805E1,5.1936793E0,3.4827805E1,3.5093567E1,1.3319323E1],"tree_param":{"num_deleted":"0","num_feature":"5","num_nodes":"53","size_leaf_vector":"1"}},{"base_weights":[-1.4291125E-3,-1.428865E-1,3.2594595E-2,-5.0516826E-1,-9.262922E-2,-5.5145957E-2,5.9328943E-2,-3.0951545E-2,-1.4944936E-2,-2.7008998E-1,-5.5145957E-2,-5.5145957E-2,1.04574676E-4,2.0914935E-3,6.322648E-2,-1.4944936E-2,-1.6261797E-1,-8.254616E-2,-2.7572978E-3,-5.5145957E-2,-3.06858E-2,1.04574676E-4,3.2658987E-2,1.6329493E-3,6.509247E-2,-1.1537917E-2,-1.6261797E-1,-8.130899E-3,-3.442303E-3,-2.7572978E-3,-4.2915877E-2,-4.2915877E-2,-2.6527232E-2,8.68762E-4,1.6329493E-3,4.8875727E-2,3.2829405E-3,-9.834408E-3,-8.130899E-3,-2.4515458E-3,-2.145794E-3,-2.145794E-3,-1.7360777E-3,-1.7360777E-3,-1.3263616E-3,2.4437865E-3,2.8633634E-3],"categories":[],"categories_nodes":[],"categories_segments":[],"categories_sizes":[],"default_left":[0,0,0,0,0,0,0,0,0,0,0,0,0,0,0,0,0,0,0,0,0,0,0,0,0,0,0,0,0,0,0,0,0,0,0,0,0,0,0,0,0,0,0,0,0,0,0],"id":11,"left_children":[1,3,5,7,9,11,13,-1,-1,15,17,19,-1,21,23,-1,25,27,-1,29,31,-1,33,-1,35,-1,37,-1,-1,-1,39,41,43,-1,-1,45,-1,-1,-1,-1,-1,-1,-1,-1,-1,-1,-1],"loss_changes":[4.299515E0,3.10679E0,2.190781E0,5.666909E-1,1.83451E0,2.0025897E-1,2.2117615E-1,0E0,0E0,6.3841224E-1,8.46833E-5,5.189085E-2,0E0,1.14646055E-1,6.4986944E-2,0E0,2.8668213E-1,9.583614E-2,0E0,5.267024E-3,1.454964E-1,0E0,1.178249E-2,0E0,7.0364475E-3,0E0,5.364412E-2,0E0,0E0,0E0,6.1914325E-3,3.0802488E-3,1.736392E-2,0E0,0E0,2.0351216E-2,0E0,0E0,0E0,0E0,0E0,0E0,0E0,0E0,0E0,0E0,0E0],"parents":[2147483647,0,0,1,1,2,2,3,3,4,4,5,5,6,6,9,9,10,10,11,11,13,13,14,14,16,16,17,17,19,19,20,20,22,22,24,24,26,26,30,30,31,31,32,32,35,35],"right_children":[2,4,6,8,10,12,14,-1,-1,16,18,20,-1,22,24,-1,26,28,-1,30,32,-1,34,-1,36,-1,38,-1,-1,-1,40,42,44,-1,-1,46,-1,-1,-1,-1,-1,-1,-1,-1,-1,-1,-1],"split_conditions":[5.5906814E-1,2.4828305E-2,2.6530612E-1,4.3153098E-1,2.7565226E-1,7.62309E-1,1.5911342E-1,-3.0951545E-2,-1.4944936E-2,3.3746496E-1,9.074091E-2,6.902167E-1,1.04574676E-4,5.209592E-1,4.4058565E-2,-1.4944936E-2,1.724138E-1,4.2261124E-1,-2.7572978E-3,3.6933327E-1,4.8985982E-1,1.04574676E-4,7.585505E-1,1.6329493E-3,5.672831E-1,-1.1537917E-2,7.599075E-2,-8.130899E-3,-3.442303E-3,-2.7572978E-3,3.3506918E-1,5.4471207E-1,6.1989453E-2,8.68762E-4,1.6329493E-3,4.7826087E-1,3.2829405E-3,-9.834408E-3,-8.130899E-3,-2.4515458E-3,-2.145794E-3,-2.145794E-3,-1.7360777E-3,-1.7360777E-3,-1.3263616E-3,2.4437865E-3,2.8633634E-3],"split_indices":[4,2,0,4,1,2,1,0,0,4,2,4,0,2,2,0,0,1,0,2,1,0,4,0,4,0,1,0,0,0,1,2,2,0,0,0,0,0,0,0,0,0,0,0,0,0,0],"split_type":[0,0,0,0,0,0,0,0,0,0,0,0,0,0,0,0,0,0,0,0,0,0,0,0,0,0,0,0,0,0,0,0,0,0,0,0,0,0,0,0,0,0,0,0,0,0,0],"sum_hessian":[8.913628E2,1.7220432E2,7.1915845E2,1.9875963E1,1.5232835E2,1.2968253E2,5.8947595E2,1.4068062E1,5.8079023E0,4.3435818E1,1.0889254E2,1.267883E2,2.8942199E0,1.371025E1,5.757657E2,2.0583994E1,2.2851824E1,3.1634154E0,1.05729126E2,3.5974796E1,9.08135E1,7.7462797E0,5.96397E0,1.6638277E0,5.7410187E2,5.662036E0,1.7189787E1,1.0204933E0,2.1429224E0,3.1929672E1,4.045125E0,5.334198E1,3.747152E1,3.6537628E0,2.3102076E0,4.6979594E0,5.694039E2,4.4764E0,1.27133875E1,1.1029801E0,2.9421446E0,5.080491E1,2.537072E0,2.9515874E0,3.451993E1,3.1165903E0,1.581369E0],"tree_param":{"num_deleted":"0","num_feature":"5","num_nodes":"47","size_leaf_vector":"1"}},{"base_weights":[-1.975778E-3,-2.5523663E-1,2.5174867E-2,-3.009246E-1,-1.1503088E-1,-6.1126508E-2,4.4245623E-2,-1.729233E-2,-2.0797774E-1,-1.876659E-1,-1.1503088E-1,-1.1503088E-1,-8.440442E-3,-8.440442E-3,4.7159996E-2,-1.3845608E-2,-2.0797774E-1,-1.0398887E-2,-7.567419E-3,-7.567419E-3,-5.751544E-3,-5.751544E-3,-6.173566E-2,-6.173566E-2,-8.440442E-3,-4.2202213E-4,9.6798886E-4,9.6798886E-4,2.4226604E-3,-1.2122247E-2,-1.0398887E-2,-4.419164E-3,-3.086783E-3,-3.086783E-3,-3.508805E-2,-3.508805E-2,-4.2202213E-4,-2.4205928E-3,-1.7544025E-3,-1.7544025E-3,-1.0882124E-3],"categories":[],"categories_nodes":[],"categories_segments":[],"categories_sizes":[],"default_left":[0,0,0,0,0,0,0,0,0,0,0,0,0,0,0,0,0,0,0,0,0,0,0,0,0,0,0,0,0,0,0,0,0,0,0,0,0,0,0,0,0],"id":12,"left_children":[1,3,5,7,9,11,13,-1,15,17,19,21,23,25,27,-1,29,-1,-1,-1,-1,-1,31,33,35,-1,-1,-1,-1,-1,-1,-1,-1,-1,37,39,-1,-1,-1,-1,-1],"loss_changes":[6.0769753E0,7.465315E-1,1.3165159E0,3.256855E-1,7.5691193E-3,6.6927904E-1,1.7552865E-1,0E0,9.5983505E-2,1.5499577E-2,3.4258693E-2,3.398757E-1,3.644933E-1,6.905037E-2,4.5782447E-2,0E0,4.9062073E-3,0E0,0E0,0E0,0E0,0E0,8.688593E-2,3.79107E-2,4.9149595E-2,0E0,0E0,0E0,0E0,0E0,0E0,0E0,0E0,0E0,3.8423434E-2,3.1786487E-3,0E0,0E0,0E0,0E0,0E0],"parents":[2147483647,0,0,1,1,2,2,3,3,4,4,5,5,6,6,8,8,9,9,10,10,11,11,12,12,13,13,14,14,16,16,22,22,23,23,24,24,34,34,35,35],"right_children":[2,4,6,8,10,12,14,-1,16,18,20,22,24,26,28,-1,30,-1,-1,-1,-1,-1,32,34,36,-1,-1,-1,-1,-1,-1,-1,-1,-1,38,40,-1,-1,-1,-1,-1],"split_conditions":[2.3713021E-1,2.7878982E-1,2.6530612E-1,2.0084505E-1,1.0714286E-1,4.8985982E-1,1.5358967E-1,-1.729233E-2,2.0408164E-1,6.5038796E-3,3.078333E-1,3.994416E-1,1.550646E-1,5.2E-1,4.190145E-3,-1.3845608E-2,2.0610904E-3,-1.0398887E-2,-7.567419E-3,-7.567419E-3,-5.751544E-3,-5.751544E-3,1.6E-1,1.891892E-1,1.6E-1,-4.2202213E-4,9.6798886E-4,9.6798886E-4,2.4226604E-3,-1.2122247E-2,-1.0398887E-2,-4.419164E-3,-3.086783E-3,-3.086783E-3,5.553612E-1,2.024957E-1,-4.2202213E-4,-2.4205928E-3,-1.7544025E-3,-1.7544025E-3,-1.0882124E-3],"split_indices":[3,1,0,2,0,1,1,0,0,2,1,3,2,0,2,0,1,0,0,0,0,0,0,0,0,0,0,0,0,0,0,0,0,0,1,2,0,0,0,0,0],"split_type":[0,0,0,0,0,0,0,0,0,0,0,0,0,0,0,0,0,0,0,0,0,0,0,0,0,0,0,0,0,0,0,0,0,0,0,0,0,0,0,0,0],"sum_hessian":[8.818355E2,8.456971E1,7.972658E2,6.966295E1,1.4906763E1,1.4389388E2,6.5337195E2,5.052648E1,1.9136465E1,2.9427345E0,1.1964029E1,7.3193405E1,7.070047E1,9.999298E0,6.433726E2,5.9165063E0,1.3219959E1,1.5548352E0,1.3878993E0,2.941654E0,9.022375E0,5.7051968E1,1.6141436E1,2.1378075E1,4.9322395E1,8.613854E0,1.3854438E0,1.479579E0,6.4189307E2,4.5983195E0,8.62164E0,2.518289E0,1.3623146E1,1.1190467E1,1.0187608E1,2.5613024E0,4.6761093E1,2.100375E0,8.087233E0,1.5133139E0,1.0479885E0],"tree_param":{"num_deleted":"0","num_feature":"5","num_nodes":"41","size_leaf_vector":"1"}},{"base_weights":[-3.2716477E-3,-2.3364078E-1,2.3207953E-2,-3.3922562E-1,-1.2830657E-1,-8.188104E-2,4.235926E-2,-4.612413E-1,-2.337661E-1,-9.856854E-3,-1.05216414E-1,-1.05216414E-1,-1.976089E-2,-1.976089E-2,5.3243063E-2,-2.7316261E-2,-3.475037E-1,-1.5504293E-2,-1.1688305E-2,-7.5588375E-3,-5.260821E-3,-5.260821E-3,-6.2488653E-2,-3.1244326E-3,-1.976089E-2,-9.880445E-4,1.6741086E-2,1.6741086E-2,5.3981863E-2,-2.2345722E-2,-1.7375184E-2,-8.385253E-2,-3.1244326E-3,-2.0562387E-3,-9.880445E-4,-1.5099021E-3,1.6741086E-2,8.370543E-4,1.7680739E-3,1.7680739E-3,5.42337E-2,-4.1926266E-3,-3.6585294E-3,-7.54951E-5,3.807796E-4,3.807796E-4,8.370543E-4,2.5561147E-3,2.868166E-3],"categories":[],"categories_nodes":[],"categories_segments":[],"categories_sizes":[],"default_left":[0,0,0,0,0,0,0,0,0,0,0,0,0,0,0,0,0,0,0,0,0,0,0,0,0,0,0,0,0,0,0,0,0,0,0,0,0,0,0,0,0,0,0,0,0,0,0,0,0],"id":13,"left_children":[1,3,5,7,9,11,13,15,17,-1,19,21,23,25,27,-1,29,-1,-1,-1,-1,-1,31,-1,33,-1,35,37,39,-1,-1,41,-1,-1,-1,43,45,-1,-1,-1,47,-1,-1,-1,-1,-1,-1,-1,-1],"loss_changes":[5.359231E0,9.637909E-1,1.5895704E0,9.144535E-1,2.5869912E-1,4.6327263E-1,5.2298534E-1,1.433754E-1,1.3759136E-3,0E0,4.9167424E-2,9.930539E-2,3.178916E-2,1.7865607E-1,2.3687482E-2,0E0,2.448833E-2,0E0,0E0,0E0,0E0,0E0,7.405758E-2,0E0,6.9088787E-3,0E0,1.7186934E-1,7.8837626E-2,3.6665201E-3,0E0,0E0,1.589948E-2,0E0,0E0,0E0,3.450572E-2,2.1987155E-2,0E0,0E0,0E0,2.660036E-3,0E0,0E0,0E0,0E0,0E0,0E0,0E0,0E0],"parents":[2147483647,0,0,1,1,2,2,3,3,4,4,5,5,6,6,7,7,8,8,10,10,11,11,12,12,13,13,14,14,16,16,22,22,24,24,26,26,27,27,28,28,31,31,35,35,36,36,40,40],"right_children":[2,4,6,8,10,12,14,16,18,-1,20,22,24,26,28,-1,30,-1,-1,-1,-1,-1,32,-1,34,-1,36,38,40,-1,-1,42,-1,-1,-1,44,46,-1,-1,-1,48,-1,-1,-1,-1,-1,-1,-1,-1],"split_conditions":[2.472758E-1,5.427187E-1,5.5906814E-1,1.7168887E-1,2.927422E-1,4.473684E-1,2.6530612E-1,3.3746496E-1,2.0408164E-1,-9.856854E-3,1.0714286E-1,6.3646114E-1,4.1972777E-1,6.902167E-1,1.4468442E-1,-2.7316261E-2,9.058414E-2,-1.5504293E-2,-1.1688305E-2,-7.5588375E-3,-5.260821E-3,-5.260821E-3,2.244898E-1,-3.1244326E-3,1.6856503E-1,-9.880445E-4,4.8836732E-1,7.906215E-1,5.622313E-1,-2.2345722E-2,-1.7375184E-2,4.585468E-1,-3.1244326E-3,-2.0562387E-3,-9.880445E-4,8.0484986E-1,1.4634146E-1,8.370543E-4,1.7680739E-3,1.7680739E-3,6.7275184E-1,-4.1926266E-3,-3.6585294E-3,-7.54951E-5,3.807796E-4,3.807796E-4,8.370543E-4,2.5561147E-3,2.868166E-3],"split_indices":[3,4,4,3,1,0,0,4,0,0,0,1,3,4,1,0,1,0,0,0,0,0,0,0,4,0,1,4,4,0,0,4,0,0,0,4,0,0,0,0,1,0,0,0,0,0,0,0,0],"split_type":[0,0,0,0,0,0,0,0,0,0,0,0,0,0,0,0,0,0,0,0,0,0,0,0,0,0,0,0,0,0,0,0,0,0,0,0,0,0,0,0,0,0,0,0,0,0,0,0,0],"sum_hessian":[8.7666174E2,8.957215E1,7.870896E2,4.362394E1,4.594821E1,1.2082282E2,6.662668E2,2.7319546E1,1.6304394E1,3.3890068E1,1.2058144E1,9.9177574E1,2.1645243E1,8.592607E1,5.803407E2,1.49495E1,1.2370045E1,8.618098E0,7.686296E0,1.259224E0,1.079892E1,7.1506424E1,2.7671152E1,1.4351959E0,2.0210047E1,2.493552E1,6.0990555E1,5.5554338E0,5.747853E2,5.516301E0,6.8537436E0,6.0500817E0,2.162107E1,1.5034562E0,1.870659E1,2.4861368E1,3.6129185E1,3.087795E0,2.4676387E0,1.4583246E0,5.7332697E2,4.080543E0,1.9695387E0,1.4304147E1,1.0557222E1,1.6170139E0,3.4512173E1,2.9619278E2,2.771342E2],"tree_param":{"num_deleted":"0","num_feature":"5","num_nodes":"49","size_leaf_vector":"1"}},{"base_weights":[3.5475468E-4,-1.410966E-1,3.2133758E-2,-4.712153E-1,-9.753989E-2,-5.4481424E-2,4.2118825E-2,-2.7538478E-2,-1.4218881E-2,-2.843776E-1,-7.1237564E-2,-2.7240713E-3,-3.0906498E-4,-3.0906498E-4,2.3321377E-3,-1.4218881E-2,-1.7780758E-1,-1.3670139E-1,-5.4481424E-2,-1.15546305E-2,-8.890379E-3,-1.7780758E-1,-4.7795707E-3,-9.559141E-2,-2.7240713E-3,-8.890379E-3,-6.834975E-3,-4.7795707E-3,-3.7518211E-3],"categories":[],"categories_nodes":[],"categories_segments":[],"categories_sizes":[],"default_left":[0,0,0,0,0,0,0,0,0,0,0,0,0,0,0,0,0,0,0,0,0,0,0,0,0,0,0,0,0],"id":14,"left_children":[1,3,5,7,9,11,13,-1,-1,15,17,-1,-1,-1,-1,-1,19,21,23,-1,-1,25,-1,27,-1,-1,-1,-1,-1],"loss_changes":[3.964281E0,2.2803068E0,9.258888E-1,5.0337124E-1,8.5717523E-1,1.9379514E-1,2.9799652E-1,0E0,0E0,6.812811E-3,2.2985846E-1,0E0,0E0,0E0,0E0,0E0,2.4771586E-2,3.3494532E-1,4.7057837E-2,0E0,0E0,6.871152E-2,0E0,1.4512569E-2,0E0,0E0,0E0,0E0,0E0],"parents":[2147483647,0,0,1,1,2,2,3,3,4,4,5,5,6,6,9,9,10,10,16,16,17,17,18,18,21,21,23,23],"right_children":[2,4,6,8,10,12,14,-1,-1,16,18,-1,-1,-1,-1,-1,20,22,24,-1,-1,26,-1,28,-1,-1,-1,-1,-1],"split_conditions":[5.5906814E-1,2.4828305E-2,2.472758E-1,5.427187E-1,8.1929505E-2,3.0596593E-1,4.190145E-3,-2.7538478E-2,-1.4218881E-2,3.489017E-1,3.3349556E-1,-2.7240713E-3,-3.0906498E-4,-3.0906498E-4,2.3321377E-3,-1.4218881E-2,5.130591E-2,3.3746496E-1,2.8075308E-1,-1.15546305E-2,-8.890379E-3,2.7878982E-1,-4.7795707E-3,5.9017384E-1,-2.7240713E-3,-8.890379E-3,-6.834975E-3,-4.7795707E-3,-3.7518211E-3],"split_indices":[4,2,3,4,1,1,2,0,0,2,3,0,0,0,0,0,1,4,1,0,0,1,0,2,0,0,0,0,0],"split_type":[0,0,0,0,0,0,0,0,0,0,0,0,0,0,0,0,0,0,0,0,0,0,0,0,0,0,0,0,0],"sum_hessian":[8.798868E2,1.6078363E2,7.1910315E2,1.7596952E1,1.4318668E2,4.1634087E1,6.7746906E2,1.63809E1,1.2160518E0,1.2741889E1,1.304448E2,2.9615267E1,1.201882E1,4.425948E0,6.730431E2,7.1103964E0,5.6314926E0,3.8900463E1,9.154433E1,4.1224155E0,1.5090772E0,1.728591E1,2.1614553E1,3.9270074E0,8.7617325E1,9.151561E0,8.134349E0,1.8947743E0,2.0322332E0],"tree_param":{"num_deleted":"0","num_feature":"5","num_nodes":"29","size_leaf_vector":"1"}},{"base_weights":[-1.4527217E-3,-2.2272862E-1,2.1356875E-2,-3.642626E-1,-1.3267119E-1,-7.6383725E-2,3.7968952E-2,-4.885024E-1,-1.2423346E-2,-1.7212065E-1,-1.0068587E-1,-1.0068587E-1,-4.2293727E-2,-9.603693E-4,4.293505E-2,-2.6203519E-2,-1.8424233E-2,-2.1736144E-1,-6.820163E-3,-6.820163E-3,-5.0342935E-3,-5.0342935E-3,-7.1489796E-2,-3.5744898E-3,-2.5251139E-2,1.1863832E-2,4.375376E-2,-1.2423346E-2,-8.844118E-3,-4.304392E-3,-3.5744898E-3,-2.4185234E-3,-1.9207386E-2,5.9319165E-4,1.3904398E-3,3.1715836E-2,2.3331337E-3,-1.6790525E-3,-9.603693E-4,1.3904398E-3,1.9594629E-3],"categories":[],"categories_nodes":[],"categories_segments":[],"categories_sizes":[],"default_left":[0,0,0,0,0,0,0,0,0,0,0,0,0,0,0,0,0,0,0,0,0,0,0,0,0,0,0,0,0,0,0,0,0,0,0,0,0,0,0,0,0],"id":15,"left_children":[1,3,5,7,9,11,13,15,-1,17,19,21,23,-1,25,-1,-1,27,-1,-1,-1,-1,29,-1,31,33,35,-1,-1,-1,-1,-1,37,-1,-1,39,-1,-1,-1,-1,-1],"loss_changes":[4.3685765E0,9.826312E-1,1.2770234E0,8.2737494E-1,1.5198076E-1,2.3553061E-1,3.7705624E-1,1.256609E-2,0E0,5.80765E-2,4.8542872E-2,5.840063E-4,1.0858986E-1,0E0,3.0511618E-2,0E0,0E0,1.810106E-1,0E0,0E0,0E0,0E0,9.976042E-3,0E0,6.731902E-2,2.0532208E-2,2.1718502E-2,0E0,0E0,0E0,0E0,0E0,1.360029E-3,0E0,0E0,1.7989376E-1,0E0,0E0,0E0,0E0,0E0],"parents":[2147483647,0,0,1,1,2,2,3,3,4,4,5,5,6,6,7,7,9,9,10,10,11,11,12,12,14,14,17,17,22,22,24,24,25,25,26,26,32,32,35,35],"right_children":[2,4,6,8,10,12,14,16,-1,18,20,22,24,-1,26,-1,-1,28,-1,-1,-1,-1,30,-1,32,34,36,-1,-1,-1,-1,-1,38,-1,-1,40,-1,-1,-1,-1,-1],"split_conditions":[2.3713021E-1,4.2884594E-1,5.5906814E-1,2.1996066E-1,3.0596593E-1,3.3349556E-1,4.190145E-3,2.7565226E-1,-1.2423346E-2,8.3082035E-2,7.190186E-1,4.5492244E-1,6.7815796E-2,-9.603693E-4,2.472758E-1,-2.6203519E-2,-1.8424233E-2,6.640678E-1,-6.820163E-3,-6.820163E-3,-5.0342935E-3,-5.0342935E-3,9.904215E-2,-3.5744898E-3,2.7565226E-1,1.238509E-1,3.12388E-1,-1.2423346E-2,-8.844118E-3,-4.304392E-3,-3.5744898E-3,-2.4185234E-3,1.3650818E-1,5.9319165E-4,1.3904398E-3,7.9881996E-1,2.3331337E-3,-1.6790525E-3,-9.603693E-4,1.3904398E-3,1.9594629E-3],"split_indices":[3,4,4,2,1,3,2,1,0,2,4,2,2,0,3,0,0,4,0,0,0,0,1,0,1,1,2,0,0,0,0,0,4,0,0,4,0,0,0,0,0],"split_type":[0,0,0,0,0,0,0,0,0,0,0,0,0,0,0,0,0,0,0,0,0,0,0,0,0,0,0,0,0,0,0,0,0,0,0,0,0,0,0,0,0],"sum_hessian":[8.635998E2,7.988366E1,7.837161E2,2.987983E1,5.0003834E1,1.13328186E2,6.7038794E2,2.161773E1,8.2621E0,4.0995193E1,9.008639E0,2.2474045E1,9.085413E1,5.2840433E0,6.651039E2,1.858697E1,3.0307603E0,1.8873737E1,2.2121454E1,3.1570814E0,5.851558E0,2.0242338E1,2.2317073E0,2.0520282E0,8.880211E1,3.621426E0,6.614825E2,8.86577E0,1.0007967E1,1.2110087E0,1.0206988E0,4.0035605E0,8.4798546E1,1.2094475E0,2.4119785E0,1.3105244E2,5.3043E2,7.3685265E0,7.743002E1,7.991067E1,5.114178E1],"tree_param":{"num_deleted":"0","num_feature":"5","num_nodes":"41","size_leaf_vector":"1"}},{"base_weights":[6.1985413E-3,-1.8606009E-1,2.4531983E-2,-3.9153886E-1,-1.1202437E-1,-8.0764055E-2,4.219746E-2,-2.5663504E-2,-1.2589081E-2,-1.2589081E-2,-8.2499266E-2,-8.0764055E-2,-1.9283298E-2,-1.9283298E-2,3.0834202E-3,-1.2519573E-1,-8.0764055E-2,-4.038203E-3,-6.1209217E-2,-2.501184E-3,-9.641649E-4,-1.9283298E-2,1.661892E-2,-1.5511245E-1,-1.0297989E-1,-5.1489947E-3,-4.038203E-3,-3.5493318E-3,-5.0023675E-2,-9.641649E-4,-6.660945E-5,-6.660945E-5,2.1192553E-2,-8.357022E-3,-6.4523085E-3,-6.4523085E-3,-5.1489947E-3,-3.0252577E-3,-2.501184E-3,4.9650914E-4,1.0596276E-3],"categories":[],"categories_nodes":[],"categories_segments":[],"categories_sizes":[],"default_left":[0,0,0,0,0,0,0,0,0,0,0,0,0,0,0,0,0,0,0,0,0,0,0,0,0,0,0,0,0,0,0,0,0,0,0,0,0,0,0,0,0],"id":16,"left_children":[1,3,5,7,9,11,13,-1,-1,-1,15,17,19,21,-1,23,25,-1,27,-1,-1,29,31,33,35,-1,-1,-1,37,-1,-1,-1,39,-1,-1,-1,-1,-1,-1,-1,-1],"loss_changes":[3.0424783E0,1.0993574E0,1.5092732E0,5.74219E-1,2.8555357E-1,1.16006136E-1,1.2796549E0,0E0,0E0,0E0,7.827693E-2,2.965045E-2,3.8086955E-2,5.5557907E-2,0E0,5.5131376E-2,1.7932639E-2,0E0,2.1674663E-2,0E0,0E0,4.272598E-2,1.4253889E-1,9.857094E-2,3.039813E-2,0E0,0E0,0E0,3.444998E-2,0E0,0E0,0E0,2.8623655E-2,0E0,0E0,0E0,0E0,0E0,0E0,0E0,0E0],"parents":[2147483647,0,0,1,1,2,2,3,3,4,4,5,5,6,6,10,10,11,11,12,12,13,13,15,15,16,16,18,18,21,21,22,22,23,23,24,24,28,28,32,32],"right_children":[2,4,6,8,10,12,14,-1,-1,-1,16,18,20,22,-1,24,26,-1,28,-1,-1,30,32,34,36,-1,-1,-1,38,-1,-1,-1,40,-1,-1,-1,-1,-1,-1,-1,-1],"split_conditions":[2.3713021E-1,3.325087E-1,5.5906814E-1,1.9423173E-1,9.677419E-2,9.6920913E-1,2.6530612E-1,-2.5663504E-2,-1.2589081E-2,-1.2589081E-2,3.0596593E-1,2.6876503E-1,1.6856503E-1,4.1218737E-1,3.0834202E-3,2.857143E-1,7.190186E-1,-4.038203E-3,3.3349556E-1,-2.501184E-3,-9.641649E-4,6.3646114E-1,7.012896E-1,6.4438486E-1,2.0610904E-3,-5.1489947E-3,-4.038203E-3,-3.5493318E-3,2.173913E-1,-9.641649E-4,-6.660945E-5,-6.660945E-5,1.6E-1,-8.357022E-3,-6.4523085E-3,-6.4523085E-3,-5.1489947E-3,-3.0252577E-3,-2.501184E-3,4.9650914E-4,1.0596276E-3],"split_indices":[3,4,4,3,0,3,0,0,0,0,1,1,4,3,0,0,4,0,3,0,0,1,4,4,1,0,0,0,0,0,0,0,0,0,0,0,0,0,0,0,0],"split_type":[0,0,0,0,0,0,0,0,0,0,0,0,0,0,0,0,0,0,0,0,0,0,0,0,0,0,0,0,0,0,0,0,0,0,0,0,0,0,0,0,0],"sum_hessian":[8.6087775E2,7.414869E1,7.8672906E2,1.8504042E1,5.5644646E1,1.098279E2,6.769011E2,1.3896517E1,4.607524E0,5.8591337E0,4.978551E1,1.06256226E2,3.5716825E0,9.155749E1,5.853436E2,4.203202E1,7.7534914E0,1.2658832E1,9.359739E1,1.266475E0,2.3052075E0,4.9166477E1,4.239101E1,3.1001741E1,1.1030279E1,2.7486284E0,5.004863E0,1.390477E1,7.969262E1,4.7204597E1,1.9618803E0,1.1289211E1,3.1101797E1,1.7657286E1,1.3344455E1,3.8554733E0,7.174806E0,1.2405735E1,6.728689E1,1.9806461E0,2.9121151E1],"tree_param":{"num_deleted":"0","num_feature":"5","num_nodes":"41","size_leaf_vector":"1"}},{"base_weights":[-1.5685916E-2,-1.910364E-1,1.6081373E-3,-3.347766E-1,-1.0912239E-1,-4.735707E-3,8.243988E-3,-4.56566E-1,-1.1097475E-2,-1.7719261E-1,-4.735707E-3,-4.3235075E-2,2.0219363E-2,-2.5513092E-2,-1.6962888E-2,-2.219495E-1,-6.7976685E-3,-4.3235075E-2,-5.753928E-4,-1.1507856E-2,2.0740112E-2,-1.1097475E-2,-8.947573E-3,-2.1617538E-3,-3.1489287E-2,-5.753928E-4,2.3080641E-4,2.3080641E-4,1.0512206E-3,-1.8681091E-3,-1.3685733E-3],"categories":[],"categories_nodes":[],"categories_segments":[],"categories_sizes":[],"default_left":[0,0,0,0,0,0,0,0,0,0,0,0,0,0,0,0,0,0,0,0,0,0,0,0,0,0,0,0,0,0,0],"id":17,"left_children":[1,3,5,7,9,-1,11,13,-1,15,-1,17,19,-1,-1,21,-1,23,-1,25,27,-1,-1,-1,29,-1,-1,-1,-1,-1,-1],"loss_changes":[2.5841188E0,8.641703E-1,9.363173E-1,7.465935E-1,2.4790776E-1,0E0,6.25785E-1,1.0388327E-1,0E0,1.18512034E-1,0E0,6.587121E-2,1.3999581E-2,0E0,0E0,9.234905E-2,0E0,2.0186305E-3,0E0,6.1565626E-2,5.683303E-3,0E0,0E0,0E0,2.6308E-3,0E0,0E0,0E0,0E0,0E0,0E0],"parents":[2147483647,0,0,1,1,2,2,3,3,4,4,6,6,7,7,9,9,11,11,12,12,15,15,17,17,19,19,20,20,24,24],"right_children":[2,4,6,8,10,-1,12,14,-1,16,-1,18,20,-1,-1,22,-1,24,-1,26,28,-1,-1,-1,30,-1,-1,-1,-1,-1,-1],"split_conditions":[2.3713021E-1,4.2884594E-1,6.5038796E-3,1.9423173E-1,2.927422E-1,-4.735707E-3,5.5906814E-1,1.8052925E-1,-1.1097475E-2,8.3082035E-2,-4.735707E-3,9.6920913E-1,1.4468442E-1,-2.5513092E-2,-1.6962888E-2,6.875819E-1,-6.7976685E-3,6.468088E-1,-5.753928E-4,9.637096E-1,5.622313E-1,-1.1097475E-2,-8.947573E-3,-2.1617538E-3,5.4520583E-1,-5.753928E-4,2.3080641E-4,2.3080641E-4,1.0512206E-3,-1.8681091E-3,-1.3685733E-3],"split_indices":[3,4,2,3,1,0,4,2,0,2,0,3,1,0,0,4,0,1,0,4,4,0,0,0,4,0,0,0,0,0,0],"split_type":[0,0,0,0,0,0,0,0,0,0,0,0,0,0,0,0,0,0,0,0,0,0,0,0,0,0,0,0,0,0,0],"sum_hessian":[8.510343E2,7.5497025E1,7.7553723E2,2.6285353E1,4.9211674E1,7.697926E0,7.6783936E2,1.9768454E1,6.5168996E0,3.8293568E1,1.0918104E1,1.06931145E2,6.609082E2,1.6261827E1,3.506626E0,1.7368134E1,2.0925436E1,1.04016914E2,2.9142275E0,7.615371E0,6.532928E2,8.349712E0,9.018422E0,7.683643E1,2.7180483E1,5.4407034E0,2.1746676E0,1.2883896E0,6.520044E2,2.6104511E1,1.0759717E0],"tree_param":{"num_deleted":"0","num_feature":"5","num_nodes":"31","size_leaf_vector":"1"}},{"base_weights":[-7.63706E-3,-1.9938791E-1,1.0670348E-2,-3.724095E-1,-1.3292952E-1,-4.717939E-3,1.5392729E-2,-2.5554523E-2,-1.26334755E-2,-1.7454103E-1,-9.435878E-2,-3.907981E-2,2.4052361E-2,-1.9639668E-1,-1.344499E-1,-6.722495E-3,-4.717939E-3,-3.9483026E-2,-7.513725E-3,-7.513725E-3,2.5607338E-2,-1.26334755E-2,-8.271164E-3,-8.271164E-3,-6.722495E-3,-1.9741512E-3,-2.4324177E-2,-1.1749187E-3,-3.7568627E-4,-3.7568627E-4,4.5234032E-4,1.5406562E-2,2.8002251E-2,-1.5951801E-3,-1.1749187E-3,4.5234032E-4,1.0852203E-3,1.0852203E-3,1.4347456E-3],"categories":[],"categories_nodes":[],"categories_segments":[],"categories_sizes":[],"default_left":[0,0,0,0,0,0,0,0,0,0,0,0,0,0,0,0,0,0,0,0,0,0,0,0,0,0,0,0,0,0,0,0,0,0,0,0,0,0,0],"id":18,"left_children":[1,3,5,7,9,-1,11,-1,-1,13,15,17,19,21,23,-1,-1,25,27,29,31,-1,-1,-1,-1,-1,33,-1,-1,-1,-1,35,37,-1,-1,-1,-1,-1,-1],"loss_changes":[2.989127E0,8.038032E-1,7.048538E-1,6.2316155E-1,2.0301491E-1,0E0,3.6484146E-1,0E0,0E0,4.2913914E-2,5.2491486E-2,1.16544425E-1,5.7893246E-2,9.163296E-2,4.7296017E-2,0E0,0E0,1.370123E-2,1.2387063E-2,6.3389264E-2,1.564318E-2,0E0,0E0,0E0,0E0,0E0,1.3483744E-2,0E0,0E0,0E0,0E0,1.7115612E-1,4.3492913E-3,0E0,0E0,0E0,0E0,0E0,0E0],"parents":[2147483647,0,0,1,1,2,2,3,3,4,4,6,6,9,9,10,10,11,11,12,12,13,13,14,14,17,17,18,18,19,19,20,20,26,26,31,31,32,32],"right_children":[2,4,6,8,10,-1,12,-1,-1,14,16,18,20,22,24,-1,-1,26,28,30,32,-1,-1,-1,-1,-1,34,-1,-1,-1,-1,36,38,-1,-1,-1,-1,-1,-1],"split_conditions":[2.3713021E-1,3.3746496E-1,6.5038796E-3,1.9423173E-1,3.0596593E-1,-4.717939E-3,5.5906814E-1,-2.5554523E-2,-1.26334755E-2,1.9702467E-1,7.190186E-1,6.468088E-1,1.4468442E-1,4.3153098E-1,6.9318905E-2,-6.722495E-3,-4.717939E-3,2.7878982E-1,1.2440985E-1,9.637096E-1,3.12388E-1,-1.26334755E-2,-8.271164E-3,-8.271164E-3,-6.722495E-3,-1.9741512E-3,3.3349556E-1,-1.1749187E-3,-3.7568627E-4,-3.7568627E-4,4.5234032E-4,7.9881996E-1,5.6425893E-1,-1.5951801E-3,-1.1749187E-3,4.5234032E-4,1.0852203E-3,1.0852203E-3,1.4347456E-3],"split_indices":[3,4,2,3,1,0,4,0,0,2,4,1,1,4,1,0,0,1,4,4,2,0,0,0,0,0,3,0,0,0,0,4,4,0,0,0,0,0,0],"split_type":[0,0,0,0,0,0,0,0,0,0,0,0,0,0,0,0,0,0,0,0,0,0,0,0,0,0,0,0,0,0,0,0,0,0,0,0,0,0,0],"sum_hessian":[8.4988525E2,7.320882E1,7.7667645E2,1.9038706E1,5.417011E1,6.2281995E0,7.7044824E2,1.3589568E1,5.4491367E0,4.4728123E1,9.441988E0,1.05198E2,6.6525024E2,3.4047016E1,1.06811075E1,3.498745E0,5.943243E0,7.7753426E1,2.7444572E1,8.264676E0,6.569856E2,4.358808E0,2.9688208E1,5.464679E0,5.2164283E0,1.2344448E1,6.540898E1,4.6185045E0,2.2826067E1,6.0773582E0,2.1873178E0,1.26330894E2,5.3065466E2,1.282641E1,5.258257E1,7.728322E1,4.9047672E1,1.4981474E0,5.2915656E2],"tree_param":{"num_deleted":"0","num_feature":"5","num_nodes":"39","size_leaf_vector":"1"}},{"base_weights":[8.383906E-3,-8.80711E-2,3.5271693E-2,-2.3343375E-1,-2.6399704E-2,-2.6399704E-2,5.1728968E-2,-2.7437938E-2,-1.7737605E-1,-1.2991673E-1,-2.6399704E-2,-2.6399704E-2,1.2664632E-2,1.2664632E-2,5.2967183E-2,-2.122632E-1,-6.4958367E-3,-6.4958367E-3,-3.907911E-3,-7.8158215E-2,-2.6399704E-2,-1.3199853E-3,-6.867536E-3,-3.433768E-4,6.332316E-4,6.332316E-4,3.2815907E-2,3.2815907E-2,5.3675145E-2,-1.30181005E-2,-1.7108996E-1,-3.907911E-3,-5.227896E-2,-5.227896E-2,-2.6399704E-2,-1.663362E-2,-3.433768E-4,1.1370134E-3,1.6407954E-3,1.6407954E-3,2.1622763E-3,2.1622763E-3,2.7152651E-3,-1.07863E-2,-8.554499E-3,-3.2609291E-3,-2.613948E-3,-2.613948E-3,-1.9669665E-3,-1.9669665E-3,-1.3199853E-3,-8.31681E-4,-5.875289E-4],"categories":[],"categories_nodes":[],"categories_segments":[],"categories_sizes":[],"default_left":[0,0,0,0,0,0,0,0,0,0,0,0,0,0,0,0,0,0,0,0,0,0,0,0,0,0,0,0,0,0,0,0,0,0,0,0,0,0,0,0,0,0,0,0,0,0,0,0,0,0,0,0,0],"id":19,"left_children":[1,3,5,7,9,11,13,-1,15,17,19,21,23,25,27,29,-1,-1,-1,31,33,-1,35,-1,-1,-1,37,39,41,-1,43,-1,45,47,49,51,-1,-1,-1,-1,-1,-1,-1,-1,-1,-1,-1,-1,-1,-1,-1,-1,-1],"loss_changes":[2.1762438E0,1.7363172E0,1.0599943E0,9.0594316E-1,3.009621E-1,9.548816E-2,3.8733125E-2,0E0,1.9633019E-1,2.2746181E-1,2.191758E-1,3.8767546E-2,2.0084169E-2,8.246612E-2,1.3582706E-2,2.011342E-1,0E0,0E0,0E0,1.01064235E-1,6.687862E-2,0E0,1.3877315E-2,0E0,0E0,0E0,3.2524914E-3,2.4961388E-2,5.6786537E-3,0E0,8.560687E-3,0E0,4.6182975E-2,1.1229306E-2,1.15555525E-2,9.082384E-3,0E0,0E0,0E0,0E0,0E0,0E0,0E0,0E0,0E0,0E0,0E0,0E0,0E0,0E0,0E0,0E0,0E0],"parents":[2147483647,0,0,1,1,2,2,3,3,4,4,5,5,6,6,8,8,9,9,10,10,11,11,12,12,13,13,14,14,15,15,19,19,20,20,22,22,26,26,27,27,28,28,30,30,32,32,33,33,34,34,35,35],"right_children":[2,4,6,8,10,12,14,-1,16,18,20,22,24,26,28,30,-1,-1,-1,32,34,-1,36,-1,-1,-1,38,40,42,-1,44,-1,46,48,50,52,-1,-1,-1,-1,-1,-1,-1,-1,-1,-1,-1,-1,-1,-1,-1,-1,-1],"split_conditions":[2.6530612E-1,2.8075308E-1,5.57882E-1,3.796704E-2,8.609909E-3,7.8279114E-1,1.5136853E-1,-2.7437938E-2,7.8324056E-1,7.2792774E-1,4.8985982E-1,4.5833334E-1,1.6856503E-1,5.209592E-1,5.672831E-1,2.244898E-1,-6.4958367E-3,-6.4958367E-3,-3.907911E-3,3.1655994E-1,3.7118116E-1,-1.3199853E-3,4.6997803E-1,-3.433768E-4,6.332316E-4,6.332316E-4,7.585505E-1,4.7826087E-1,4.4058565E-2,-1.30181005E-2,8.46571E-1,-3.907911E-3,2.0689656E-1,2.3076923E-1,1.6E-1,4.6612853E-1,-3.433768E-4,1.1370134E-3,1.6407954E-3,1.6407954E-3,2.1622763E-3,2.1622763E-3,2.7152651E-3,-1.07863E-2,-8.554499E-3,-3.2609291E-3,-2.613948E-3,-2.613948E-3,-1.9669665E-3,-1.9669665E-3,-1.3199853E-3,-8.31681E-4,-5.875289E-4],"split_indices":[0,1,4,4,2,1,1,0,2,4,1,0,4,2,4,0,0,0,0,2,4,0,2,0,0,0,4,0,2,0,4,0,0,0,0,4,0,0,0,0,0,0,0,0,0,0,0,0,0,0,0,0,0],"split_type":[0,0,0,0,0,0,0,0,0,0,0,0,0,0,0,0,0,0,0,0,0,0,0,0,0,0,0,0,0,0,0,0,0,0,0,0,0,0,0,0,0,0,0,0,0,0,0,0,0,0,0,0,0],"sum_hessian":[8.369294E2,1.8194817E2,6.549812E2,5.5758186E1,1.2618998E2,7.348244E1,5.814988E2,7.0896535E0,4.8668533E1,1.1776613E1,1.1441337E2,6.334942E1,1.0133017E1,1.1297542E1,5.7020123E2,4.694049E1,1.7280438E0,5.8128815E0,5.9637313E0,5.9144985E1,5.5268383E1,4.8169044E1,1.5180373E1,1.4126093E0,8.7204075E0,6.2545185E0,5.043023E0,4.423075E0,5.6577814E2,3.8108624E1,8.831865E0,3.6532196E1,2.2612791E1,5.125022E0,5.014336E1,4.0914464E0,1.1088927E1,2.7362468E0,2.3067765E0,2.9706552E0,1.45242E0,1.0329045E0,5.6474524E2,5.393033E0,3.4388323E0,8.342947E0,1.4269843E1,2.9811988E0,2.143823E0,5.4330206E0,4.471034E1,2.3001866E0,1.7912596E0],"tree_param":{"num_deleted":"0","num_feature":"5","num_nodes":"53","size_leaf_vector":"1"}},{"base_weights":[-1.5334765E-3,-1.1745815E-1,2.1699505E-2,-2.0191852E-2,-8.730443E-2,-4.7879323E-2,3.552373E-2,-2.2240402E-1,-4.7879323E-2,-4.7879323E-2,-6.177796E-3,-3.088898E-4,2.0433757E-3,-1.2278536E-2,-1.3514167E-1,-1.3514167E-1,-4.7879323E-2,-2.3939663E-3,-1.3514281E-3,-1.3514281E-3,-6.177796E-3,-9.51781E-3,-6.757084E-3,-6.757084E-3,-9.15105E-2,-4.575525E-3,-4.7879323E-2,-8.30159E-4,-3.088898E-4,-5.6663044E-3,-4.575525E-3,-3.4847453E-3,-2.3939663E-3],"categories":[],"categories_nodes":[],"categories_segments":[],"categories_sizes":[],"default_left":[0,0,0,0,0,0,0,0,0,0,0,0,0,0,0,0,0,0,0,0,0,0,0,0,0,0,0,0,0,0,0,0,0],"id":20,"left_children":[1,3,5,-1,7,9,11,13,15,17,19,-1,-1,-1,21,23,25,-1,-1,-1,27,-1,-1,-1,29,-1,31,-1,-1,-1,-1,-1,-1],"loss_changes":[2.27006E0,1.1798928E0,7.2794724E-1,0E0,8.719954E-1,1.91558E-1,2.6555443E-1,6.5490043E-1,1.7284463E-1,2.9924154E-2,8.409743E-2,0E0,0E0,0E0,6.520882E-2,1.0705438E-1,6.947182E-3,0E0,0E0,0E0,2.286623E-2,0E0,0E0,0E0,1.7284974E-2,0E0,3.2854974E-3,0E0,0E0,0E0,0E0,0E0,0E0],"parents":[2147483647,0,0,1,1,2,2,4,4,5,5,6,6,7,7,8,8,9,9,10,10,14,14,15,15,16,16,20,20,24,24,26,26],"right_children":[2,4,6,-1,8,10,12,14,16,18,20,-1,-1,-1,22,24,26,-1,-1,-1,28,-1,-1,-1,30,-1,32,-1,-1,-1,-1,-1,-1],"split_conditions":[5.5906814E-1,5.130591E-2,2.6530612E-1,-2.0191852E-2,2.0689656E-1,4.1218737E-1,2.1547517E-1,4.4593948E-1,3.116423E-1,6.3646114E-1,1.6E-1,-3.088898E-4,2.0433757E-3,-1.2278536E-2,7.170564E-2,4.434356E-1,1.5136853E-1,-2.3939663E-3,-1.3514281E-3,-1.3514281E-3,5.9326124E-1,-9.51781E-3,-6.757084E-3,-6.757084E-3,2.6923078E-1,-4.575525E-3,2.1428572E-1,-8.30159E-4,-3.088898E-4,-5.6663044E-3,-4.575525E-3,-3.4847453E-3,-2.3939663E-3],"split_indices":[4,1,0,0,0,3,3,4,3,1,0,0,0,0,3,4,1,0,0,0,4,0,0,0,0,0,0,0,0,0,0,0,0],"split_type":[0,0,0,0,0,0,0,0,0,0,0,0,0,0,0,0,0,0,0,0,0,0,0,0,0,0,0,0,0,0,0,0,0],"sum_hessian":[8.4091565E2,1.3971744E2,7.011982E2,1.2129297E1,1.2758815E2,1.0851078E2,5.9268744E2,3.4265827E1,9.332232E1,7.043079E1,3.807999E1,7.2110896E0,5.854763E2,2.3108816E1,1.1157011E1,1.849363E1,7.482869E1,6.875257E1,1.6782211E0,2.9470453E0,3.5132942E1,1.4446684E0,9.712342E0,1.2514909E1,5.97872E0,1.0725608E0,7.3756134E1,1.9749529E0,3.315799E1,2.5186439E0,3.460076E0,1.0788206E0,7.267731E1],"tree_param":{"num_deleted":"0","num_feature":"5","num_nodes":"33","size_leaf_vector":"1"}},{"base_weights":[-2.8608066E-3,-1.664563E-1,1.1755904E-2,-3.341943E-1,-1.0429021E-1,-7.369339E-2,2.4914974E-2,-2.336104E-2,-1.0962113E-2,-1.0962113E-2,-7.73502E-2,-7.73502E-2,-2.4389207E-2,-2.4389207E-2,3.575107E-2,-1.3276657E-1,-3.86751E-3,-7.73502E-2,-5.8689013E-2,-2.5434853E-3,-2.4389207E-2,-1.2194604E-3,5.6809317E-3,2.840466E-4,1.8323762E-3,-7.4148118E-3,-5.2529196E-3,-3.86751E-3,-6.8019606E-2,-3.4009803E-3,-2.5434853E-3,-1.8814728E-3,-1.2194604E-3,-9.354138E-3,5.6809317E-3,-3.634245E-3,-3.4009803E-3,-4.677069E-4,-9.183015E-5,-9.183015E-5,2.840466E-4],"categories":[],"categories_nodes":[],"categories_segments":[],"categories_sizes":[],"default_left":[0,0,0,0,0,0,0,0,0,0,0,0,0,0,0,0,0,0,0,0,0,0,0,0,0,0,0,0,0,0,0,0,0,0,0,0,0,0,0,0,0],"id":21,"left_children":[1,3,5,7,9,11,13,-1,-1,-1,15,17,19,21,23,25,-1,27,29,-1,31,-1,33,-1,-1,-1,-1,-1,35,-1,-1,-1,-1,37,39,-1,-1,-1,-1,-1,-1],"loss_changes":[2.020737E0,6.8788147E-1,8.7432253E-1,5.316138E-1,3.0266637E-1,1.7993516E-1,5.0202096E-1,0E0,0E0,0E0,1.690489E-2,1.5832245E-2,2.823314E-2,3.6667377E-2,3.1272233E-2,6.6623926E-2,0E0,2.7974844E-2,9.003271E-2,0E0,6.414689E-3,0E0,7.031512E-2,0E0,0E0,0E0,0E0,0E0,6.716639E-3,0E0,0E0,0E0,0E0,4.859153E-3,2.1151723E-2,0E0,0E0,0E0,0E0,0E0,0E0],"parents":[2147483647,0,0,1,1,2,2,3,3,4,4,5,5,6,6,10,10,11,11,12,12,13,13,14,14,15,15,17,17,18,18,20,20,22,22,28,28,33,33,34,34],"right_children":[2,4,6,8,10,12,14,-1,-1,-1,16,18,20,22,24,26,-1,28,30,-1,32,-1,34,-1,-1,-1,-1,-1,36,-1,-1,-1,-1,38,40,-1,-1,-1,-1,-1,-1],"split_conditions":[2.3713021E-1,3.3746496E-1,5.5906814E-1,1.9423173E-1,1.0810811E-1,4.473684E-1,2.6530612E-1,-2.336104E-2,-1.0962113E-2,-1.0962113E-2,4.2884594E-1,2.173913E-1,1.6856503E-1,4.1218737E-1,4.190145E-3,1.7610507E-1,-3.86751E-3,4.585468E-1,3.116423E-1,-2.5434853E-3,4.1972777E-1,-1.2194604E-3,7.012896E-1,2.840466E-4,1.8323762E-3,-7.4148118E-3,-5.2529196E-3,-3.86751E-3,3.643863E-1,-3.4009803E-3,-2.5434853E-3,-1.8814728E-3,-1.2194604E-3,6.992745E-1,1.6E-1,-3.634245E-3,-3.4009803E-3,-4.677069E-4,-9.183015E-5,-9.183015E-5,2.840466E-4],"split_indices":[3,4,4,3,0,0,0,0,0,0,4,0,4,3,2,2,0,4,3,0,3,0,4,0,0,0,0,0,3,0,0,0,0,2,0,0,0,0,0,0,0],"split_type":[0,0,0,0,0,0,0,0,0,0,0,0,0,0,0,0,0,0,0,0,0,0,0,0,0,0,0,0,0,0,0,0,0,0,0,0,0,0,0,0,0],"sum_hessian":[8.432441E2,6.830966E1,7.749344E2,1.7287714E1,5.1021946E1,1.02799416E2,6.7213495E2,1.2356465E1,4.9312487E0,6.7818007E0,4.4240143E1,8.3765854E1,1.9033566E1,8.175316E1,5.9038184E2,6.4530087E0,3.7787136E1,2.2121408E1,6.1644444E1,1.4623821E0,1.7571182E1,4.505157E1,3.670159E1,1.0989989E0,5.8928284E2,3.8958478E0,2.5571609E0,1.3917942E1,8.203466E0,6.928833E0,5.471561E1,1.1773114E0,1.6393871E1,8.510359E0,2.819123E1,4.3245606E0,3.8789065E0,6.8349833E0,1.6753757E0,2.1210856E0,2.6070147E1],"tree_param":{"num_deleted":"0","num_feature":"5","num_nodes":"41","size_leaf_vector":"1"}},{"base_weights":[-6.4690234E-3,-1.7550182E-1,8.738377E-3,-3.1206816E-1,-8.4538944E-2,-7.281783E-2,2.0987147E-2,-4.18783E-1,-9.915178E-3,-7.3863827E-3,-8.338172E-2,-4.169086E-3,-4.682047E-2,-1.2957671E-3,2.4657369E-2,-2.31952E-2,-1.5427164E-2,-5.777735E-3,-4.169086E-3,-3.2550548E-3,-2.7710533E-2,-6.289873E-4,2.6195953E-2,-4.6405815E-2,-2.5915343E-2,-3.1449366E-5,6.3917413E-4,6.3917413E-4,1.3369544E-3,-2.3202908E-3,-1.808029E-3,-1.808029E-3,-1.2957671E-3],"categories":[],"categories_nodes":[],"categories_segments":[],"categories_sizes":[],"default_left":[0,0,0,0,0,0,0,0,0,0,0,0,0,0,0,0,0,0,0,0,0,0,0,0,0,0,0,0,0,0,0,0,0],"id":22,"left_children":[1,3,5,7,9,11,13,15,-1,-1,17,-1,19,-1,21,-1,-1,-1,-1,-1,23,25,27,29,31,-1,-1,-1,-1,-1,-1,-1,-1],"loss_changes":[2.1735582E0,8.40605E-1,7.768967E-1,5.191381E-1,1.366708E-1,1.03116155E-1,2.2981837E-1,9.204197E-2,0E0,0E0,4.106286E-2,0E0,8.9262396E-2,0E0,4.7834724E-2,0E0,0E0,0E0,0E0,0E0,3.4002967E-2,5.665633E-2,9.417087E-3,2.525273E-2,4.9211085E-3,0E0,0E0,0E0,0E0,0E0,0E0,0E0,0E0],"parents":[2147483647,0,0,1,1,2,2,3,3,4,4,5,5,6,6,7,7,10,10,12,12,14,14,20,20,21,21,22,22,23,23,24,24],"right_children":[2,4,6,8,10,12,14,16,-1,-1,18,-1,20,-1,22,-1,-1,-1,-1,-1,24,26,28,30,32,-1,-1,-1,-1,-1,-1,-1,-1],"split_conditions":[2.3713021E-1,4.6612853E-1,5.5906814E-1,1.8052925E-1,3.0596593E-1,2.6876503E-1,4.190145E-3,1.9423173E-1,-9.915178E-3,-7.3863827E-3,7.190186E-1,-4.169086E-3,2.0345457E-2,-1.2957671E-3,1.4468442E-1,-2.31952E-2,-1.5427164E-2,-5.777735E-3,-4.169086E-3,-3.2550548E-3,3.3349556E-1,9.637096E-1,5.6425893E-1,2.7742592E-1,5.23414E-1,-3.1449366E-5,6.3917413E-4,6.3917413E-4,1.3369544E-3,-2.3202908E-3,-1.808029E-3,-1.808029E-3,-1.2957671E-3],"split_indices":[3,4,4,2,1,1,2,3,0,0,4,0,2,0,1,0,0,0,0,0,3,4,4,2,1,0,0,0,0,0,0,0,0],"split_type":[0,0,0,0,0,0,0,0,0,0,0,0,0,0,0,0,0,0,0,0,0,0,0,0,0,0,0,0,0,0,0,0,0],"sum_hessian":[8.439651E2,6.879183E1,7.751732E2,2.6530207E1,4.2261623E1,1.0057409E2,6.745992E2,1.7818087E1,8.712122E0,3.370226E1,8.559364E0,1.0752226E1,8.982186E1,4.382734E0,6.7021643E2,1.623222E1,1.5858667E0,2.6147592E0,5.9446054E0,2.2333663E0,8.758849E1,8.31237E0,6.6190405E2,1.22707205E1,7.531778E1,5.907305E0,2.4050653E0,1.4032936E0,6.6050073E2,1.0337183E1,1.9335368E0,3.4897545E1,4.042023E1],"tree_param":{"num_deleted":"0","num_feature":"5","num_nodes":"33","size_leaf_vector":"1"}},{"base_weights":[8.387914E-3,-1.10253915E-1,3.162895E-2,-4.340724E-1,-6.924111E-2,-3.9312482E-2,3.816407E-2,-2.5669543E-2,-1.2582839E-2,-2.2294752E-1,-3.9312482E-2,-1.965624E-3,-2.8710254E-5,-2.8710254E-5,4.22755E-2,-2.5165677E-1,-1.3113001E-1,-9.643128E-2,-1.965624E-3,2.1029344E-2,4.2465214E-2,-1.2582839E-2,-9.56967E-3,-9.56967E-3,-6.5565007E-3,-6.5565007E-3,-3.3935942E-3,1.0425324E-3,1.5873639E-3,1.5873639E-3,2.1550716E-3],"categories":[],"categories_nodes":[],"categories_segments":[],"categories_sizes":[],"default_left":[0,0,0,0,0,0,0,0,0,0,0,0,0,0,0,0,0,0,0,0,0,0,0,0,0,0,0,0,0,0,0],"id":23,"left_children":[1,3,5,7,9,11,13,-1,-1,15,17,-1,-1,-1,19,21,23,25,-1,27,29,-1,-1,-1,-1,-1,-1,-1,-1,-1,-1],"loss_changes":[2.273548E0,1.7638855E0,4.5095122E-1,3.9289117E-1,1.0030701E0,1.5397581E-1,2.1198398E-1,0E0,0E0,3.1277764E-1,4.648576E-2,0E0,0E0,0E0,1.7242432E-3,1.1052847E-2,1.5900263E-1,1.3242815E-1,0E0,3.9030015E-2,7.82609E-3,0E0,0E0,0E0,0E0,0E0,0E0,0E0,0E0,0E0,0E0],"parents":[2147483647,0,0,1,1,2,2,3,3,4,4,5,5,6,6,9,9,10,10,14,14,15,15,16,16,17,17,19,19,20,20],"right_children":[2,4,6,8,10,12,14,-1,-1,16,18,-1,-1,-1,20,22,24,26,-1,28,30,-1,-1,-1,-1,-1,-1,-1,-1,-1,-1],"split_conditions":[5.5906814E-1,2.4828305E-2,2.472758E-1,5.427187E-1,2.7565226E-1,3.0596593E-1,4.190145E-3,-2.5669543E-2,-1.2582839E-2,3.3746496E-1,3.3349556E-1,-1.965624E-3,-2.8710254E-5,-2.8710254E-5,1.4468442E-1,3.284335E-1,7.599075E-2,2.7742592E-1,-1.965624E-3,7.585505E-1,5.6425893E-1,-1.2582839E-2,-9.56967E-3,-9.56967E-3,-6.5565007E-3,-6.5565007E-3,-3.3935942E-3,1.0425324E-3,1.5873639E-3,1.5873639E-3,2.1550716E-3],"split_indices":[4,2,3,4,1,1,2,0,0,4,3,0,0,0,1,2,1,2,0,4,4,0,0,0,0,0,0,0,0,0,0],"split_type":[0,0,0,0,0,0,0,0,0,0,0,0,0,0,0,0,0,0,0,0,0,0,0,0,0,0,0,0,0,0,0],"sum_hessian":[8.222735E2,1.3407874E2,6.8819476E2,1.3995196E1,1.20083534E2,3.5979927E1,6.5221484E2,1.2943484E1,1.0517119E0,3.2007484E1,8.807605E1,2.538709E1,1.0592837E1,3.8843467E0,6.483305E2,1.5503618E1,1.6503866E1,1.3721962E1,7.435409E1,6.727754E0,6.416027E2,9.645131E0,5.858487E0,4.8511095E0,1.1652757E1,1.203076E1,1.6912018E0,4.451885E0,2.2758691E0,1.4736022E0,6.401291E2],"tree_param":{"num_deleted":"0","num_feature":"5","num_nodes":"31","size_leaf_vector":"1"}},{"base_weights":[-1.22454725E-2,-1.5183708E-1,-2.538256E-4,-3.1252757E-1,-9.5694736E-2,-6.172652E-2,8.5132895E-3,-2.2417251E-2,-1.02055585E-2,-1.02055585E-2,-7.604545E-2,-3.8022727E-3,-2.6606616E-2,-2.6606616E-2,1.0231956E-3,-1.2659127E-1,-3.8022727E-3,-5.1326036E-2,-2.6606616E-2,-2.6606616E-2,-3.0713528E-3,-1.400783E-1,-1.0131836E-1,-2.566302E-3,-1.9483165E-3,-1.9483165E-3,-1.3303309E-3,-1.3303309E-3,-7.4194925E-4,-7.4194925E-4,-3.0713528E-3,-7.0039155E-3,-6.0349167E-3,-6.0349167E-3,-5.065918E-3,-4.4775844E-4,-1.5356764E-4],"categories":[],"categories_nodes":[],"categories_segments":[],"categories_sizes":[],"default_left":[0,0,0,0,0,0,0,0,0,0,0,0,0,0,0,0,0,0,0,0,0,0,0,0,0,0,0,0,0,0,0,0,0,0,0,0,0],"id":24,"left_children":[1,3,5,7,9,11,13,-1,-1,-1,15,-1,17,19,-1,21,-1,23,25,27,29,31,33,-1,-1,-1,-1,-1,-1,-1,35,-1,-1,-1,-1,-1,-1],"loss_changes":[1.3893073E0,5.624305E-1,4.1299143E-1,4.7427106E-1,2.4671221E-1,2.358593E-1,4.7488216E-1,0E0,0E0,0E0,8.8858366E-2,0E0,9.197554E-2,3.364533E-2,0E0,4.7468245E-2,0E0,5.1045135E-2,2.5003657E-2,2.1895438E-2,7.542328E-2,1.5557706E-2,1.626473E-2,0E0,0E0,0E0,0E0,0E0,0E0,0E0,1.6733635E-2,0E0,0E0,0E0,0E0,0E0,0E0],"parents":[2147483647,0,0,1,1,2,2,3,3,4,4,5,5,6,6,10,10,12,12,13,13,15,15,17,17,18,18,19,19,20,20,21,21,22,22,30,30],"right_children":[2,4,6,8,10,12,14,-1,-1,-1,16,-1,18,20,-1,22,-1,24,26,28,30,32,34,-1,-1,-1,-1,-1,-1,-1,36,-1,-1,-1,-1,-1,-1],"split_conditions":[2.3713021E-1,3.3746496E-1,5.5906814E-1,1.9423173E-1,1.0810811E-1,3.3349556E-1,2.6530612E-1,-2.2417251E-2,-1.02055585E-2,-1.02055585E-2,3.0596593E-1,-3.8022727E-3,2.1428572E-1,4.1218737E-1,1.0231956E-3,2.857143E-1,-3.8022727E-3,4.3153098E-1,2.2788075E-1,6.3646114E-1,7.012896E-1,1E0,2.0610904E-3,-2.566302E-3,-1.9483165E-3,-1.9483165E-3,-1.3303309E-3,-1.3303309E-3,-7.4194925E-4,-7.4194925E-4,1.6E-1,-7.0039155E-3,-6.0349167E-3,-6.0349167E-3,-5.065918E-3,-4.4775844E-4,-1.5356764E-4],"split_indices":[3,4,4,3,0,3,0,0,0,0,1,0,0,3,0,0,0,4,1,1,4,4,1,0,0,0,0,0,0,0,0,0,0,0,0,0,0],"split_type":[0,0,0,0,0,0,0,0,0,0,0,0,0,0,0,0,0,0,0,0,0,0,0,0,0,0,0,0,0,0,0,0,0,0,0,0,0],"sum_hessian":[8.2898883E2,6.465817E1,7.643307E2,1.5558879E1,4.9099293E1,9.46474E1,6.696833E2,1.0912241E1,4.646638E0,6.372954E0,4.2726337E1,1.9636356E1,7.501105E1,8.267289E1,5.870104E2,3.6043335E1,6.683003E0,1.0698239E1,6.4312805E1,4.4862476E1,3.7810417E1,2.626343E1,9.779907E0,7.091801E0,3.6064382E0,2.1875074E0,6.21253E1,4.3004696E1,1.8577781E0,1.0508286E1,2.730213E1,2.3718275E1,2.5451548E0,3.5640085E0,6.2158985E0,2.074175E0,2.5227955E1],"tree_param":{"num_deleted":"0","num_feature":"5","num_nodes":"37","size_leaf_vector":"1"}},{"base_weights":[1.1151483E-2,-2.3955023E-1,1.9978568E-2,-2.3982143E-2,-1.0978583E-1,-6.45661E-2,3.411493E-2,-1.4735718E-2,-5.4892916E-3,-1.0978583E-1,-1.5225584E-2,-1.5225584E-2,5.042969E-2,-5.4892916E-3,-6.250571E-2,-5.8599956E-2,-1.5225584E-2,-1.5225584E-2,1.7602053E-2,1.7602053E-2,5.357585E-2,-4.3072887E-3,-6.250571E-2,-6.250571E-2,-1.8456385E-3,-3.691277E-2,-7.612792E-4,-7.612792E-4,5.9411723E-5,5.9411723E-5,1.7602053E-2,8.801026E-4,3.558895E-2,1.7794475E-3,2.6911695E-3,-3.716287E-3,-3.1252855E-3,-3.1252855E-3,-2.485462E-3,-1.8456385E-3,-1.3034588E-3,4.6975716E-4,8.801026E-4,1.3297751E-3,1.7794475E-3],"categories":[],"categories_nodes":[],"categories_segments":[],"categories_sizes":[],"default_left":[0,0,0,0,0,0,0,0,0,0,0,0,0,0,0,0,0,0,0,0,0,0,0,0,0,0,0,0,0,0,0,0,0,0,0,0,0,0,0,0,0,0,0,0,0],"id":25,"left_children":[1,3,5,-1,7,9,11,-1,-1,13,15,17,19,-1,21,23,25,27,29,31,33,-1,35,37,-1,39,-1,-1,-1,-1,41,-1,43,-1,-1,-1,-1,-1,-1,-1,-1,-1,-1,-1,-1],"loss_changes":[1.8262724E0,1.8531715E0,9.5357597E-1,0E0,1.4359295E-1,5.685159E-1,8.8939744E-1,0E0,0E0,1.1793339E-1,3.0258462E-2,8.722167E-2,1.1332142E-1,0E0,8.0710426E-2,6.525594E-2,7.0504546E-3,3.243275E-2,1.4029789E-1,4.192603E-2,3.5288334E-3,0E0,1.4904141E-3,3.081739E-3,0E0,1.782305E-2,0E0,0E0,0E0,0E0,3.2726377E-3,0E0,1.3531871E-2,0E0,0E0,0E0,0E0,0E0,0E0,0E0,0E0,0E0,0E0,0E0,0E0],"parents":[2147483647,0,0,1,1,2,2,4,4,5,5,6,6,9,9,10,10,11,11,12,12,14,14,15,15,16,16,17,17,18,18,19,19,20,20,22,22,23,23,25,25,30,30,32,32],"right_children":[2,4,6,-1,8,10,12,-1,-1,14,16,18,20,-1,22,24,26,28,30,32,34,-1,36,38,-1,40,-1,-1,-1,-1,42,-1,44,-1,-1,-1,-1,-1,-1,-1,-1,-1,-1,-1,-1],"split_conditions":[8.609909E-3,6.875819E-1,5.5906814E-1,-2.3982143E-2,1.0714286E-1,5.158934E-1,2.6530612E-1,-1.4735718E-2,-5.4892916E-3,3.5250688E-1,6.468088E-1,4.8836732E-1,1.5911342E-1,-5.4892916E-3,2.0689656E-1,4.5833334E-1,2.244898E-1,7.62309E-1,6.902167E-1,5.209592E-1,5.622313E-1,-4.3072887E-3,4.9360357E-2,6.37356E-1,-1.8456385E-3,4.585468E-1,-7.612792E-4,-7.612792E-4,5.9411723E-5,5.9411723E-5,7.60814E-2,8.801026E-4,7.585505E-1,1.7794475E-3,2.6911695E-3,-3.716287E-3,-3.1252855E-3,-3.1252855E-3,-2.485462E-3,-1.8456385E-3,-1.3034588E-3,4.6975716E-4,8.801026E-4,1.3297751E-3,1.7794475E-3],"split_indices":[2,4,4,0,0,1,0,0,0,2,1,1,1,0,0,0,0,2,4,2,4,0,1,2,0,4,0,0,0,0,2,0,4,0,0,0,0,0,0,0,0,0,0,0,0],"split_type":[0,0,0,0,0,0,0,0,0,0,0,0,0,0,0,0,0,0,0,0,0,0,0,0,0,0,0,0,0,0,0,0,0,0,0,0,0,0,0,0,0,0,0,0,0],"sum_hessian":[8.220977E2,2.7072151E1,7.950256E2,1.609082E1,1.0981333E1,1.1337883E2,6.816467E2,1.8764156E0,9.104917E0,7.405513E1,3.9323704E1,9.073041E1,5.909163E2,4.1202675E1,3.2852455E1,1.52067175E1,2.4116987E1,5.0700474E1,4.0029934E1,1.1200871E1,5.7971545E2,6.223088E0,2.6629368E1,1.33375225E1,1.8691951E0,3.082024E0,2.1034964E1,4.939854E1,1.3019309E0,8.613225E0,3.141671E1,5.862987E0,5.3378844E0,1.2381606E0,5.784773E2,1.1505363E0,2.5478832E1,1.1575583E1,1.7619389E0,1.5417929E0,1.5402312E0,1.15996E0,3.0256748E1,3.0233884E0,2.3144958E0],"tree_param":{"num_deleted":"0","num_feature":"5","num_nodes":"45","size_leaf_vector":"1"}},{"base_weights":[1.3261862E-2,-9.393154E-2,3.2948673E-2,-1.7856507E-2,-6.7435704E-2,-3.0491434E-2,4.58019E-2,-1.8742555E-1,-3.0491434E-2,-3.0491434E-2,7.655233E-3,3.8276167E-4,2.5537186E-3,-1.0614146E-2,-1.089585E-1,-1.089585E-1,-3.0491434E-2,-1.5245717E-3,-5.7090505E-4,-5.7090505E-4,7.655233E-3,-8.031036E-3,-5.447925E-3,-5.447925E-3,-6.972496E-2,-6.972496E-2,-1.5245717E-3,-9.4071685E-5,7.655233E-3,-4.4670864E-3,-3.4862482E-3,-3.4862482E-3,-2.50541E-3,1.4434499E-4,3.8276167E-4],"categories":[],"categories_nodes":[],"categories_segments":[],"categories_sizes":[],"default_left":[0,0,0,0,0,0,0,0,0,0,0,0,0,0,0,0,0,0,0,0,0,0,0,0,0,0,0,0,0,0,0,0,0,0,0],"id":26,"left_children":[1,3,5,-1,7,9,11,13,15,17,19,-1,-1,-1,21,23,25,-1,-1,-1,27,-1,-1,-1,29,31,-1,-1,33,-1,-1,-1,-1,-1,-1],"loss_changes":[1.7525637E0,8.747544E-1,6.4904124E-1,0E0,6.057427E-1,1.5158777E-1,2.4370539E-1,4.6482491E-1,2.5514644E-1,3.608969E-2,7.106352E-2,0E0,0E0,0E0,5.3021878E-2,7.577038E-2,6.7593083E-3,0E0,0E0,0E0,2.2838105E-2,0E0,0E0,0E0,2.6787922E-2,3.3606067E-2,0E0,0E0,1.544781E-3,0E0,0E0,0E0,0E0,0E0,0E0],"parents":[2147483647,0,0,1,1,2,2,4,4,5,5,6,6,7,7,8,8,9,9,10,10,14,14,15,15,16,16,20,20,24,24,25,25,28,28],"right_children":[2,4,6,-1,8,10,12,14,16,18,20,-1,-1,-1,22,24,26,-1,-1,-1,28,-1,-1,-1,30,32,-1,-1,34,-1,-1,-1,-1,-1,-1],"split_conditions":[5.5906814E-1,5.130591E-2,2.6530612E-1,-1.7856507E-2,2.0408164E-1,4.1218737E-1,2.1547517E-1,4.4593948E-1,3.116423E-1,6.2641215E-1,7.012896E-1,3.8276167E-4,2.5537186E-3,-1.0614146E-2,7.170564E-2,2.8125E-1,2.173913E-1,-1.5245717E-3,-5.7090505E-4,-5.7090505E-4,1.6E-1,-8.031036E-3,-5.447925E-3,-5.447925E-3,3.9662686E-1,4.71773E-1,-1.5245717E-3,-9.4071685E-5,4.4971818E-1,-4.4670864E-3,-3.4862482E-3,-3.4862482E-3,-2.50541E-3,1.4434499E-4,3.8276167E-4],"split_indices":[4,1,0,0,0,3,3,4,3,1,4,0,0,0,3,0,0,0,0,0,0,0,0,0,4,4,0,0,1,0,0,0,0,0,0],"split_type":[0,0,0,0,0,0,0,0,0,0,0,0,0,0,0,0,0,0,0,0,0,0,0,0,0,0,0,0,0,0,0,0,0,0,0],"sum_hessian":[8.280158E2,1.2789028E2,7.0012555E2,1.0555695E1,1.1733459E2,1.0467322E2,5.9545233E2,3.0191114E1,8.714347E1,6.675763E1,3.791559E1,6.758915E0,5.886934E2,1.9668163E1,1.0522952E1,1.6460695E1,7.068277E1,6.497251E1,1.7851185E0,9.367081E0,2.8548506E1,1.2082968E0,9.314655E0,8.564714E0,7.8959813E0,3.1809373E0,6.750184E1,1.7544527E0,2.6794054E1,4.6369658E0,3.2590153E0,1.577427E0,1.6035104E0,3.6904013E0,2.3103653E1],"tree_param":{"num_deleted":"0","num_feature":"5","num_nodes":"35","size_leaf_vector":"1"}},{"base_weights":[-3.3747128E-3,-1.3187774E-1,7.50038E-3,-2.8478754E-1,-6.2188677E-2,-5.529224E-2,1.8579675E-2,-4.0985185E-1,-8.6744055E-3,-1.7348811E-1,-3.109434E-3,-3.109434E-3,-1.8356282E-2,-1.8356282E-2,1.4936322E-3,-2.2489978E-2,-1.4583498E-2,-8.6744055E-3,-5.89192E-3,-2.0136242E-3,-1.8356282E-2,-1.8356282E-2,2.8790903E-4,-1.4657191E-3,-1.8356282E-2,-9.1781415E-4,-6.299051E-3,-1.1917666E-3,-9.1781415E-4,-6.1638333E-4,-3.1495254E-4],"categories":[],"categories_nodes":[],"categories_segments":[],"categories_sizes":[],"default_left":[0,0,0,0,0,0,0,0,0,0,0,0,0,0,0,0,0,0,0,0,0,0,0,0,0,0,0,0,0,0,0],"id":27,"left_children":[1,3,5,7,9,11,13,15,-1,17,-1,-1,19,21,-1,-1,-1,-1,-1,-1,23,25,-1,-1,27,-1,29,-1,-1,-1,-1],"loss_changes":[1.14206E0,7.631204E-1,5.254136E-1,6.114695E-1,1.2557901E-1,1.73096E-1,4.8507783E-1,2.9431343E-2,0E0,9.341866E-3,0E0,0E0,1.1786462E-1,5.94483E-2,0E0,0E0,0E0,0E0,0E0,0E0,2.9035278E-2,9.495363E-3,0E0,0E0,1.0674283E-2,0E0,6.9229705E-3,0E0,0E0,0E0,0E0],"parents":[2147483647,0,0,1,1,2,2,3,3,4,4,5,5,6,6,7,7,9,9,12,12,13,13,20,20,21,21,24,24,26,26],"right_children":[2,4,6,8,10,12,14,16,-1,18,-1,-1,20,22,-1,-1,-1,-1,-1,-1,24,26,-1,-1,28,-1,30,-1,-1,-1,-1],"split_conditions":[2.3713021E-1,4.2884594E-1,2.6530612E-1,1.9423173E-1,9.677419E-2,3.994416E-1,5.57882E-1,1.8052925E-1,-8.6744055E-3,7.570048E-2,-3.109434E-3,-3.109434E-3,1.6E-1,9.6920913E-1,1.4936322E-3,-2.2489978E-2,-1.4583498E-2,-8.6744055E-3,-5.89192E-3,-2.0136242E-3,1.5537767E-1,4.6875E-1,2.8790903E-4,-1.4657191E-3,1.550646E-1,-9.1781415E-4,2.529201E-1,-1.1917666E-3,-9.1781415E-4,-6.1638333E-4,-3.1495254E-4],"split_indices":[3,4,0,3,0,3,4,2,0,3,0,0,0,3,0,0,0,0,0,0,4,0,0,0,2,0,4,0,0,0,0],"split_type":[0,0,0,0,0,0,0,0,0,0,0,0,0,0,0,0,0,0,0,0,0,0,0,0,0,0,0,0,0,0,0],"sum_hessian":[8.15519E2,6.2763382E1,7.527556E2,2.0728624E1,4.203476E1,1.1229962E2,6.40456E2,1.5301562E1,5.4270635E0,4.267083E0,3.7767673E1,6.0299732E1,5.1999886E1,5.6540436E1,5.839155E2,1.268471E1,2.6168523E0,2.357347E0,1.9097363E0,4.2291536E0,4.7770733E1,5.419444E1,2.3459964E0,1.6993227E0,4.607141E1,3.9799988E1,1.439445E1,4.142928E0,4.1928482E1,1.3549546E0,1.3039495E1],"tree_param":{"num_deleted":"0","num_feature":"5","num_nodes":"31","size_leaf_vector":"1"}},{"base_weights":[-1.4101513E-2,-1.0302947E-1,1.6026954E-3,-3.8625184E-1,-7.0482336E-2,-5.0713386E-2,1.2458114E-2,-2.3432946E-2,-1.1418355E-2,-2.0181154E-1,-5.0713386E-2,-5.0713386E-2,-1.9127637E-2,-1.9127637E-2,1.5504802E-2,-1.1418355E-2,-1.2626246E-1,-6.313123E-3,-2.5356694E-3,-2.5356694E-3,-3.4920514E-2,-3.4920514E-2,-1.9127637E-2,-9.5638185E-4,-9.057089E-5,-9.057089E-5,1.6406344E-2,-8.865739E-3,-1.2626246E-1,-2.1408477E-3,-1.7460258E-3,-1.7460258E-3,-2.7024075E-2,-1.3512038E-3,-9.5638185E-4,7.2974632E-3,8.403955E-4,-7.589431E-3,-6.313123E-3,-1.5486147E-3,-1.3512038E-3,3.6487318E-4,6.0263433E-4],"categories":[],"categories_nodes":[],"categories_segments":[],"categories_sizes":[],"default_left":[0,0,0,0,0,0,0,0,0,0,0,0,0,0,0,0,0,0,0,0,0,0,0,0,0,0,0,0,0,0,0,0,0,0,0,0,0,0,0,0,0,0,0],"id":28,"left_children":[1,3,5,7,9,11,13,-1,-1,15,17,19,21,23,25,-1,27,-1,-1,-1,29,31,33,-1,-1,-1,35,-1,37,-1,-1,-1,39,-1,-1,41,-1,-1,-1,-1,-1,-1,-1],"loss_changes":[1.1475229E0,1.1095905E0,4.8418325E-1,2.9378343E-1,6.556493E-1,8.811477E-2,1.06383555E-1,0E0,0E0,2.9494333E-1,2.7299829E-2,2.940467E-2,7.308053E-2,3.340556E-2,1.8507227E-2,0E0,1.13971084E-1,0E0,0E0,0E0,8.185826E-3,4.3953806E-3,8.353621E-3,0E0,0E0,0E0,3.9671957E-3,0E0,2.9550135E-2,0E0,0E0,0E0,5.880639E-3,0E0,0E0,1.1992632E-2,0E0,0E0,0E0,0E0,0E0,0E0,0E0],"parents":[2147483647,0,0,1,1,2,2,3,3,4,4,5,5,6,6,9,9,10,10,11,11,12,12,13,13,14,14,16,16,20,20,21,21,22,22,26,26,28,28,32,32,35,35],"right_children":[2,4,6,8,10,12,14,-1,-1,16,18,20,22,24,26,-1,28,-1,-1,-1,30,32,34,-1,-1,-1,36,-1,38,-1,-1,-1,40,-1,-1,42,-1,-1,-1,-1,-1,-1,-1],"split_conditions":[5.5906814E-1,2.4828305E-2,2.6530612E-1,5.3783107E-1,2.7565226E-1,6.902167E-1,1.5911342E-1,-2.3432946E-2,-1.1418355E-2,3.3746496E-1,9.074091E-2,3.5250688E-1,4.8985982E-1,8.0770147E-1,4.4058565E-2,-1.1418355E-2,7.599075E-2,-6.313123E-3,-2.5356694E-3,-2.5356694E-3,1.8367347E-1,5.4471207E-1,6.1989453E-2,-9.5638185E-4,-9.057089E-5,-9.057089E-5,5.672831E-1,-8.865739E-3,1.3793103E-1,-2.1408477E-3,-1.7460258E-3,-1.7460258E-3,3.3506918E-1,-1.3512038E-3,-9.5638185E-4,4.7826087E-1,8.403955E-4,-7.589431E-3,-6.313123E-3,-1.5486147E-3,-1.3512038E-3,3.6487318E-4,6.0263433E-4],"split_indices":[4,2,0,4,1,4,1,0,0,4,2,2,1,2,2,0,1,0,0,0,0,2,2,0,0,0,4,0,0,0,0,0,1,0,0,0,0,0,0,0,0,0,0],"split_type":[0,0,0,0,0,0,0,0,0,0,0,0,0,0,0,0,0,0,0,0,0,0,0,0,0,0,0,0,0,0,0,0,0,0,0,0,0,0,0,0,0,0,0],"sum_hessian":[8.2057E2,1.2232449E2,6.982455E2,1.1488149E1,1.1083634E2,9.769496E1,6.0055054E2,1.0382629E1,1.1055201E0,2.9744976E1,8.109137E1,2.673208E1,7.0962875E1,1.2181928E1,5.883686E2,1.4424903E1,1.5320073E1,2.3620079E0,7.872936E1,2.1953339E1,4.778742E0,4.2040432E1,2.8922447E1,1.0336897E1,1.8450309E0,1.1152992E0,5.872533E2,4.2586093E0,1.1061464E1,1.0749742E0,3.7037678E0,3.951709E1,2.5233421E0,1.912729E0,2.7009718E1,4.1776066E0,5.830757E2,1.7973149E0,9.26415E0,1.1920131E0,1.331329E0,2.76316E0,1.4144466E0],"tree_param":{"num_deleted":"0","num_feature":"5","num_nodes":"43","size_leaf_vector":"1"}},{"base_weights":[1.5311284E-3,-1.0077404E-1,1.9071434E-2,-3.6361054E-1,-6.957258E-2,-4.0851302E-2,3.2202654E-2,-2.2132253E-2,-1.0829578E-2,-1.6003624E-1,-4.3776087E-2,-4.0851302E-2,-4.3243244E-3,-2.1621623E-4,1.8292762E-3,-1.0829578E-2,-1.01906165E-1,-9.955745E-2,-4.0851302E-2,-2.0425653E-3,-1.1293907E-3,-1.1293907E-3,-4.3243244E-3,-1.5924886E-1,-5.095308E-3,-1.01906165E-1,-3.5102188E-3,-3.5102188E-3,-4.0851302E-2,-5.663969E-4,-4.3243244E-3,-7.962443E-3,-6.5288753E-3,-5.095308E-3,-4.302764E-3,-2.3466914E-3,-2.0425653E-3,-3.9130656E-4,-2.1621623E-4],"categories":[],"categories_nodes":[],"categories_segments":[],"categories_sizes":[],"default_left":[0,0,0,0,0,0,0,0,0,0,0,0,0,0,0,0,0,0,0,0,0,0,0,0,0,0,0,0,0,0,0,0,0,0,0,0,0,0,0],"id":29,"left_children":[1,3,5,7,9,11,13,-1,-1,15,17,19,21,-1,-1,-1,23,25,27,-1,-1,-1,29,31,-1,33,-1,-1,35,-1,37,-1,-1,-1,-1,-1,-1,-1,-1],"loss_changes":[1.4770215E0,9.6265626E-1,6.8062615E-1,2.660619E-1,2.471804E-1,1.9430885E-1,1.9291109E-1,0E0,0E0,2.9586428E-1,6.329401E-2,3.3754706E-2,6.486341E-2,0E0,0E0,0E0,7.421929E-2,1.0162951E-1,8.036643E-3,0E0,0E0,0E0,2.0745825E-3,1.2811154E-2,0E0,3.0019581E-2,0E0,0E0,1.3569742E-4,0E0,5.6923255E-3,0E0,0E0,0E0,0E0,0E0,0E0,0E0,0E0],"parents":[2147483647,0,0,1,1,2,2,3,3,4,4,5,5,6,6,9,9,10,10,11,11,12,12,16,16,17,17,18,18,22,22,23,23,25,25,28,28,30,30],"right_children":[2,4,6,8,10,12,14,-1,-1,16,18,20,22,-1,-1,-1,24,26,28,-1,-1,-1,30,32,-1,34,-1,-1,36,-1,38,-1,-1,-1,-1,-1,-1,-1,-1],"split_conditions":[5.5906814E-1,2.4828305E-2,2.6530612E-1,5.3783107E-1,2.0408164E-1,6.902167E-1,2.1547517E-1,-2.2132253E-2,-1.0829578E-2,3.3746496E-1,3.116423E-1,6.992745E-1,1.0714286E-1,-2.1621623E-4,1.8292762E-3,-1.0829578E-2,3.643863E-1,2.0657758E-1,2.1428572E-1,-2.0425653E-3,-1.1293907E-3,-1.1293907E-3,4.0930778E-1,1.724138E-1,-5.095308E-3,2.857143E-1,-3.5102188E-3,-3.5102188E-3,4.473684E-1,-5.663969E-4,7.083616E-1,-7.962443E-3,-6.5288753E-3,-5.095308E-3,-4.302764E-3,-2.3466914E-3,-2.0425653E-3,-3.9130656E-4,-2.1621623E-4],"split_indices":[4,2,0,4,0,4,3,0,0,4,3,2,0,0,0,0,3,2,0,0,0,0,3,0,0,0,0,0,0,0,4,0,0,0,0,0,0,0,0],"split_type":[0,0,0,0,0,0,0,0,0,0,0,0,0,0,0,0,0,0,0,0,0,0,0,0,0,0,0,0,0,0,0,0,0,0,0,0,0,0,0],"sum_hessian":[8.2102783E2,1.19469215E2,7.015586E2,1.1546824E1,1.0792239E2,1.0202121E2,5.995374E2,1.0431821E1,1.115004E0,2.2791819E1,8.513058E1,2.9123142E1,7.289806E1,6.5067716E0,5.9303064E2,1.1266034E1,1.15257845E1,1.8063192E1,6.706738E1,2.6977371E1,2.14577E0,3.6644576E0,6.923361E1,8.797937E0,2.7278473E0,8.970345E0,9.092848E0,1.917655E0,6.514973E1,4.1675983E1,2.7557627E1,5.6964E0,3.1015368E0,5.9876423E0,2.982702E0,4.7774906E1,1.7374819E1,2.0715787E0,2.5486048E1],"tree_param":{"num_deleted":"0","num_feature":"5","num_nodes":"39","size_leaf_vector":"1"}},{"base_weights":[-2.5280434E-4,-1.3198674E-1,1.0608579E-2,-3.137192E-1,-7.380453E-2,-3.034454E-3,1.4906177E-2,-2.132189E-2,-9.688093E-3,-9.688093E-3,-6.068908E-2,-2.289145E-2,2.2126166E-2,-9.720116E-2,-3.034454E-3,-1.1445725E-3,-3.8264226E-4,-3.8264226E-4,1.6397411E-3,-6.3612736E-3,-3.947256E-3,-1.1637047E-2,-3.8264226E-4,-1.9132114E-5,8.103045E-4,-5.8185234E-4,-3.0049225E-4,-3.0049225E-4,-1.9132114E-5],"categories":[],"categories_nodes":[],"categories_segments":[],"categories_sizes":[],"default_left":[0,0,0,0,0,0,0,0,0,0,0,0,0,0,0,0,0,0,0,0,0,0,0,0,0,0,0,0,0],"id":30,"left_children":[1,3,5,7,9,-1,11,-1,-1,-1,13,15,17,19,-1,-1,21,23,-1,-1,-1,25,27,-1,-1,-1,-1,-1,-1],"loss_changes":[1.1696992E0,6.3525105E-1,4.414472E-1,3.5872805E-1,2.0842072E-1,0E0,2.746684E-1,0E0,0E0,0E0,4.8708916E-3,7.428795E-2,3.1267375E-1,6.304328E-2,0E0,0E0,1.29432E-2,3.6729936E-2,0E0,0E0,0E0,1.0713965E-2,4.7033373E-3,0E0,0E0,0E0,0E0,0E0,0E0],"parents":[2147483647,0,0,1,1,2,2,3,3,4,4,6,6,10,10,11,11,12,12,13,13,16,16,17,17,21,21,22,22],"right_children":[2,4,6,8,10,-1,12,-1,-1,-1,14,16,18,20,-1,-1,22,24,-1,-1,-1,26,28,-1,-1,-1,-1,-1,-1],"split_conditions":[2.3713021E-1,3.3746496E-1,6.5038796E-3,1.9423173E-1,1.0810811E-1,-3.034454E-3,5.5906814E-1,-2.132189E-2,-9.688093E-3,-9.688093E-3,4.2884594E-1,4.473684E-1,2.6530612E-1,1.7610507E-1,-3.034454E-3,-1.1445725E-3,4.6997803E-1,7.62309E-1,1.6397411E-3,-6.3612736E-3,-3.947256E-3,4.6612853E-1,1.6856503E-1,-1.9132114E-5,8.103045E-4,-5.8185234E-4,-3.0049225E-4,-3.0049225E-4,-1.9132114E-5],"split_indices":[3,4,2,3,0,0,4,0,0,0,4,0,0,2,0,0,2,2,0,0,0,4,4,0,0,0,0,0,0],"split_type":[0,0,0,0,0,0,0,0,0,0,0,0,0,0,0,0,0,0,0,0,0,0,0,0,0,0,0,0,0],"sum_hessian":[8.1552826E2,6.1268772E1,7.5425946E2,1.3793303E1,4.7475468E1,5.5392623E0,7.487202E2,1.0251665E1,3.541637E0,5.9162564E0,4.155921E1,8.5406784E1,6.633134E2,5.4165163E0,3.6142696E1,7.0310036E1,1.50967455E1,7.448883E1,5.888246E2,3.2464757E0,2.1700406E0,3.4105144E0,1.1686231E1,7.1786736E1,2.7021017E0,1.7615224E0,1.648992E0,1.1510978E0,1.0535133E1],"tree_param":{"num_deleted":"0","num_feature":"5","num_nodes":"29","size_leaf_vector":"1"}},{"base_weights":[1.6804532E-3,-8.239328E-2,1.6054275E-2,-4.075669E-1,-4.6320457E-2,-3.3169504E-2,2.1634504E-2,-2.356026E-2,-1.1347185E-2,-1.1347185E-2,-3.3169504E-2,-1.6584753E-3,-2.88375E-4,-2.88375E-4,2.510847E-2,-6.974662E-2,-3.3169504E-2,9.670485E-3,2.5306255E-2,-1.3005659E-1,-2.5729032E-3,-2.5729032E-3,-3.3169504E-2,4.8352426E-4,8.744185E-4,8.744185E-4,1.2705758E-3,-6.5028295E-3,-4.5378665E-3,-2.1156892E-3,-1.6584753E-3],"categories":[],"categories_nodes":[],"categories_segments":[],"categories_sizes":[],"default_left":[0,0,0,0,0,0,0,0,0,0,0,0,0,0,0,0,0,0,0,0,0,0,0,0,0,0,0,0,0,0,0],"id":31,"left_children":[1,3,5,7,9,11,13,-1,-1,-1,15,-1,-1,-1,17,19,21,23,25,27,-1,-1,29,-1,-1,-1,-1,-1,-1,-1,-1],"loss_changes":[9.9646413E-1,1.3933454E0,3.0147064E-1,7.095182E-2,5.377283E-1,1.1636582E-1,1.3150671E-1,0E0,0E0,0E0,3.826066E-2,0E0,0E0,0E0,2.4062395E-3,2.6732802E-1,1.1566006E-2,2.8475937E-2,7.0118904E-4,3.407085E-2,0E0,0E0,2.340272E-3,0E0,0E0,0E0,0E0,0E0,0E0,0E0,0E0],"parents":[2147483647,0,0,1,1,2,2,3,3,4,4,5,5,6,6,10,10,14,14,15,15,16,16,17,17,18,18,19,19,22,22],"right_children":[2,4,6,8,10,12,14,-1,-1,-1,16,-1,-1,-1,18,20,22,24,26,28,-1,-1,30,-1,-1,-1,-1,-1,-1,-1,-1],"split_conditions":[5.5906814E-1,2.4828305E-2,2.472758E-1,4.3153098E-1,5.130591E-2,3.0596593E-1,6.1989453E-2,-2.356026E-2,-1.1347185E-2,-1.1347185E-2,3.251893E-1,-1.6584753E-3,-2.88375E-4,-2.88375E-4,1.4468442E-1,3.3746496E-1,1.5136853E-1,7.585505E-1,5.6425893E-1,2.0699611E-1,-2.5729032E-3,-2.5729032E-3,6.8358354E-2,4.8352426E-4,8.744185E-4,8.744185E-4,1.2705758E-3,-6.5028295E-3,-4.5378665E-3,-2.1156892E-3,-1.6584753E-3],"split_indices":[4,2,3,4,1,1,2,0,0,0,3,0,0,0,1,4,1,4,4,1,0,0,4,0,0,0,0,0,0,0,0],"split_type":[0,0,0,0,0,0,0,0,0,0,0,0,0,0,0,0,0,0,0,0,0,0,0,0,0,0,0,0,0,0,0],"sum_hessian":[8.224784E2,1.1939492E2,7.0308344E2,1.0893997E1,1.0850092E2,3.5341957E1,6.677415E2,7.5561957E0,3.337802E0,6.57256E0,1.0192836E2,2.55142E1,9.827758E0,4.0390244E0,6.6370245E2,2.8420227E1,7.350813E1,6.4846535E0,6.5721783E2,1.3234976E1,1.5185251E1,1.3022071E0,7.2205925E1,4.2335043E0,2.2511494E0,1.333004E0,6.558848E2,7.194362E0,6.040613E0,5.6513443E0,6.655458E1],"tree_param":{"num_deleted":"0","num_feature":"5","num_nodes":"31","size_leaf_vector":"1"}},{"base_weights":[-1.3282322E-2,-9.8126255E-2,1.0552435E-3,-3.398739E-1,-7.1380705E-2,-4.8535507E-2,1.0988488E-2,-2.0748017E-2,-1.0281365E-2,-1.5739653E-1,-4.8535507E-2,-4.8535507E-2,-1.877351E-2,-9.386755E-4,7.723198E-4,-1.0281365E-2,-1.0296602E-1,-1.0296602E-1,-2.4267754E-3,-2.4267754E-3,-3.3654507E-2,-1.6827254E-3,-9.386755E-4,-7.7148336E-3,-5.148301E-3,-1.0296602E-1,-7.575076E-2,-2.0547505E-3,-1.6827254E-3,-5.148301E-3,-4.4679195E-3,-4.4679195E-3,-3.787538E-3],"categories":[],"categories_nodes":[],"categories_segments":[],"categories_sizes":[],"default_left":[0,0,0,0,0,0,0,0,0,0,0,0,0,0,0,0,0,0,0,0,0,0,0,0,0,0,0,0,0,0,0,0,0],"id":32,"left_children":[1,3,5,7,9,11,13,-1,-1,15,17,19,21,-1,-1,-1,23,25,-1,-1,27,-1,-1,-1,-1,29,31,-1,-1,-1,-1,-1,-1],"loss_changes":[9.8309946E-1,7.31099E-1,3.9597237E-1,2.05778E-1,2.8268546E-1,1.4967266E-1,1.6051205E-1,0E0,0E0,2.2463268E-1,1.1115225E-1,3.1780303E-2,5.1219083E-2,0E0,0E0,0E0,8.982007E-2,6.419733E-2,0E0,0E0,7.1719773E-3,0E0,0E0,0E0,0E0,3.9444566E-3,1.5154839E-2,0E0,0E0,0E0,0E0,0E0,0E0],"parents":[2147483647,0,0,1,1,2,2,3,3,4,4,5,5,6,6,9,9,10,10,11,11,12,12,16,16,17,17,20,20,25,25,26,26],"right_children":[2,4,6,8,10,12,14,-1,-1,16,18,20,22,-1,-1,-1,24,26,-1,-1,28,-1,-1,-1,-1,30,32,-1,-1,-1,-1,-1,-1],"split_conditions":[5.5906814E-1,2.4828305E-2,2.6530612E-1,5.3783107E-1,2.173913E-1,6.902167E-1,2.1547517E-1,-2.0748017E-2,-1.0281365E-2,4.434356E-1,3.116423E-1,3.6933327E-1,1.0714286E-1,-9.386755E-4,7.723198E-4,-1.0281365E-2,3.643863E-1,4.586334E-1,-2.4267754E-3,-2.4267754E-3,1.8367347E-1,-1.6827254E-3,-9.386755E-4,-7.7148336E-3,-5.148301E-3,3.6773285E-1,2.5714287E-1,-2.0547505E-3,-1.6827254E-3,-5.148301E-3,-4.4679195E-3,-4.4679195E-3,-3.787538E-3],"split_indices":[4,2,0,